{"learner":{"attributes":{"scikit_learn":"{\"_estimator_type\": \"regressor\"}"},"feature_names":["event_type_enc","event_cause_enc","priority_enc","corridor_enc","zone_enc","time_period_enc","requires_road_closure_enc","hour","dayofweek","is_weekend","month","corridor_freq","cause_freq","corridor_cause_hist_median"],"feature_types":["int","int","int","int","int","int","int","float","float","int","float","float","float","float"],"gradient_booster":{"model":{"cats":{"enc":[],"feature_segments":[],"sorted_idx":[]},"gbtree_model_param":{"num_parallel_tree":"1","num_trees":"300"},"iteration_indptr":[0,1,2,3,4,5,6,7,8,9,10,11,12,13,14,15,16,17,18,19,20,21,22,23,24,25,26,27,28,29,30,31,32,33,34,35,36,37,38,39,40,41,42,43,44,45,46,47,48,49,50,51,52,53,54,55,56,57,58,59,60,61,62,63,64,65,66,67,68,69,70,71,72,73,74,75,76,77,78,79,80,81,82,83,84,85,86,87,88,89,90,91,92,93,94,95,96,97,98,99,100,101,102,103,104,105,106,107,108,109,110,111,112,113,114,115,116,117,118,119,120,121,122,123,124,125,126,127,128,129,130,131,132,133,134,135,136,137,138,139,140,141,142,143,144,145,146,147,148,149,150,151,152,153,154,155,156,157,158,159,160,161,162,163,164,165,166,167,168,169,170,171,172,173,174,175,176,177,178,179,180,181,182,183,184,185,186,187,188,189,190,191,192,193,194,195,196,197,198,199,200,201,202,203,204,205,206,207,208,209,210,211,212,213,214,215,216,217,218,219,220,221,222,223,224,225,226,227,228,229,230,231,232,233,234,235,236,237,238,239,240,241,242,243,244,245,246,247,248,249,250,251,252,253,254,255,256,257,258,259,260,261,262,263,264,265,266,267,268,269,270,271,272,273,274,275,276,277,278,279,280,281,282,283,284,285,286,287,288,289,290,291,292,293,294,295,296,297,298,299,300],"tree_info":[0,0,0,0,0,0,0,0,0,0,0,0,0,0,0,0,0,0,0,0,0,0,0,0,0,0,0,0,0,0,0,0,0,0,0,0,0,0,0,0,0,0,0,0,0,0,0,0,0,0,0,0,0,0,0,0,0,0,0,0,0,0,0,0,0,0,0,0,0,0,0,0,0,0,0,0,0,0,0,0,0,0,0,0,0,0,0,0,0,0,0,0,0,0,0,0,0,0,0,0,0,0,0,0,0,0,0,0,0,0,0,0,0,0,0,0,0,0,0,0,0,0,0,0,0,0,0,0,0,0,0,0,0,0,0,0,0,0,0,0,0,0,0,0,0,0,0,0,0,0,0,0,0,0,0,0,0,0,0,0,0,0,0,0,0,0,0,0,0,0,0,0,0,0,0,0,0,0,0,0,0,0,0,0,0,0,0,0,0,0,0,0,0,0,0,0,0,0,0,0,0,0,0,0,0,0,0,0,0,0,0,0,0,0,0,0,0,0,0,0,0,0,0,0,0,0,0,0,0,0,0,0,0,0,0,0,0,0,0,0,0,0,0,0,0,0,0,0,0,0,0,0,0,0,0,0,0,0,0,0,0,0,0,0,0,0,0,0,0,0,0,0,0,0,0,0,0,0,0,0,0,0,0,0,0,0,0,0,0,0,0,0,0,0,0,0,0,0,0,0],"trees":[{"base_weights":[2.1576006E-3,-7.0098716E-1,1.5510741E0,-2.6050231E0,-6.6296303E-1,7.0532626E-1,1.8239245E0,5.7389118E-2,-2.9591374E0,-6.9088185E-1,5.9668392E-2,2.1878452E0,5.725009E-1,-4.4102156E-1,1.9011397E0,1.1531565E0,-7.824784E-2,-3.047178E0,-2.30561E-2,-7.50732E-1,-6.1938643E-1,-1.8975632E-1,7.9185843E-1,1.3076043E-3,2.3728945E0,1.6349973E-1,8.75958E-1,1.3080929E-1,-1.6864395E0,1.4739722E0,2.0676084E0,7.397344E-2,1.0013304E-2,-1.6007607E-1,-4.845825E-2,-2.815776E-2,-3.866428E-2,-3.281973E-2,-1.3440246E-2,2.3211649E-2,-1.9148063E-2,-2.9328417E-3,9.052845E-2,1.5187429E-1,6.48077E-2,4.80268E-3,4.398428E-2,-2.6433473E-3,5.46327E-2,-1.1103892E-1,-2.3710456E-2,8.613265E-2,1.376454E-3,1.00386195E-1,1.6108432E-1],"categories":[],"categories_nodes":[],"categories_segments":[],"categories_sizes":[],"default_left":[0,0,0,0,0,0,0,0,0,0,0,0,0,0,0,0,0,0,0,0,0,0,0,0,0,0,0,0,0,0,0,0,0,0,0,0,0,0,0,0,0,0,0,0,0,0,0,0,0,0,0,0,0,0,0],"id":0,"left_children":[1,3,5,7,9,11,13,15,17,19,21,23,25,27,29,31,-1,33,-1,35,37,39,41,-1,43,45,47,-1,49,51,53,-1,-1,-1,-1,-1,-1,-1,-1,-1,-1,-1,-1,-1,-1,-1,-1,-1,-1,-1,-1,-1,-1,-1,-1],"loss_changes":[2.134744E3,9.554047E1,1.3968738E2,2.4972748E1,2.679596E1,2.8205757E1,8.178284E1,8.874315E0,3.3023682E0,4.8494873E0,9.3417845E0,4.498272E0,1.7128838E1,6.523908E1,2.8384521E1,4.685583E-1,0E0,3.5361176E0,0E0,2.3414612E0,7.3470306E0,4.9711065E0,1.15449705E1,0E0,3.5011063E0,2.7644708E0,1.6263557E1,0E0,6.4502907E0,4.61792E1,1.505542E1,0E0,0E0,0E0,0E0,0E0,0E0,0E0,0E0,0E0,0E0,0E0,0E0,0E0,0E0,0E0,0E0,0E0,0E0,0E0,0E0,0E0,0E0,0E0,0E0],"parents":[2147483647,0,0,1,1,2,2,3,3,4,4,5,5,6,6,7,7,8,8,9,9,10,10,11,11,12,12,13,13,14,14,15,15,17,17,19,19,20,20,21,21,22,22,24,24,25,25,26,26,28,28,29,29,30,30],"right_children":[2,4,6,8,10,12,14,16,18,20,22,24,26,28,30,32,-1,34,-1,36,38,40,42,-1,44,46,48,-1,50,52,54,-1,-1,-1,-1,-1,-1,-1,-1,-1,-1,-1,-1,-1,-1,-1,-1,-1,-1,-1,-1,-1,-1,-1,-1],"split_conditions":[8.760343E1,2.7686432E1,1.4260774E2,1E0,5.8722755E1,1E0,1E0,1E0,1.3786415E1,4.4570362E1,1.5E1,2E0,1E0,1.1745993E-2,3.9809344E2,3E0,-7.824784E-2,6E0,-2.30561E-2,1E0,9E0,3E0,9E0,1.3076043E-3,3E0,1E1,1E0,1.3080929E-1,2E0,3.472705E2,3.986775E3,7.397344E-2,1.0013304E-2,-1.6007607E-1,-4.845825E-2,-2.815776E-2,-3.866428E-2,-3.281973E-2,-1.3440246E-2,2.3211649E-2,-1.9148063E-2,-2.9328417E-3,9.052845E-2,1.5187429E-1,6.48077E-2,4.80268E-3,4.398428E-2,-2.6433473E-3,5.46327E-2,-1.1103892E-1,-2.3710456E-2,8.613265E-2,1.376454E-3,1.00386195E-1,1.6108432E-1],"split_indices":[13,13,13,8,13,5,4,0,13,13,3,4,2,11,13,1,0,8,0,5,4,10,4,0,8,4,8,0,5,13,13,0,0,0,0,0,0,0,0,0,0,0,0,0,0,0,0,0,0,0,0,0,0,0,0],"split_type":[0,0,0,0,0,0,0,0,0,0,0,0,0,0,0,0,0,0,0,0,0,0,0,0,0,0,0,0,0,0,0,0,0,0,0,0,0,0,0,0,0,0,0,0,0,0,0,0,0,0,0,0,0,0,0],"sum_hessian":[1.958E3,1.347E3,6.11E2,2.5E1,1.322E3,1.5E2,4.61E2,3E0,2.2E1,1.273E3,4.9E1,1.1E1,1.39E2,1.5E1,4.46E2,2E0,1E0,2.1E1,1E0,6.87E2,5.86E2,3.7E1,1.2E1,1E0,1E1,6E1,7.9E1,4E0,1.1E1,1.28E2,3.18E2,1E0,1E0,1.9E1,2E0,7.7E1,6.1E2,5.29E2,5.7E1,8E0,2.9E1,7E0,5E0,5E0,5E0,5.6E1,4E0,1.5E1,6.4E1,7E0,4E0,1.09E2,1.9E1,3.05E2,1.3E1],"tree_param":{"num_deleted":"0","num_feature":"14","num_nodes":"55","size_leaf_vector":"1"}},{"base_weights":[4.0919394E-3,-6.7489785E-1,1.379037E0,-2.5594974E0,-6.346022E-1,5.6795555E-1,1.6884924E0,5.5954434E-2,-2.892927E0,-1.619855E0,-6.231537E-1,1.8766491E0,4.627117E-1,1.8549904E0,9.1723084E-1,1.1251609E0,-7.6291636E-2,-1.4876316E-1,-2.2479698E-2,3.6668822E-2,-1.8649788E0,-6.547711E-1,-3.197116E-1,1.426679E-1,8.970364E-1,3.3519444E-1,7.46718E-1,3.861354E-1,1.8930666E0,-1.5209231E-1,1.2039462E0,7.21241E-2,9.762976E-3,-2.530304E-2,-1.0284793E-1,-3.164619E-2,-3.773313E-2,-1.2398528E-2,-4.2414367E-2,-7.841374E-3,1.00755356E-1,2.6408587E-2,-1.655343E-2,1.6277062E-4,5.7455707E-2,1.17102854E-1,-1.2046909E-1,1.1528625E-1,8.747E-2,6.8174206E-2,-1.9583877E-3],"categories":[],"categories_nodes":[],"categories_segments":[],"categories_sizes":[],"default_left":[0,0,0,0,0,0,0,0,0,0,0,0,0,0,0,0,0,0,0,0,0,0,0,0,0,0,0,0,0,0,0,0,0,0,0,0,0,0,0,0,0,0,0,0,0,0,0,0,0,0,0],"id":1,"left_children":[1,3,5,7,9,11,13,15,17,19,21,23,25,27,29,31,-1,-1,-1,-1,33,35,37,-1,39,41,43,45,47,-1,49,-1,-1,-1,-1,-1,-1,-1,-1,-1,-1,-1,-1,-1,-1,-1,-1,-1,-1,-1,-1],"loss_changes":[1.8242705E3,9.738751E1,1.6095715E2,2.3991425E1,1.3226807E1,2.3689472E1,5.79906E1,8.441768E0,3.1480713E0,9.556557E0,1.1868011E1,9.50375E0,5.72575E0,2.0461548E1,9.996433E1,4.3979955E-1,0E0,0E0,0E0,0E0,2.0942497E0,1.888977E0,4.3063335E0,0E0,9.928206E0,1.5366261E1,1.5138512E1,6.578211E1,1.7674316E1,0E0,1.6051743E1,0E0,0E0,0E0,0E0,0E0,0E0,0E0,0E0,0E0,0E0,0E0,0E0,0E0,0E0,0E0,0E0,0E0,0E0,0E0,0E0],"parents":[2147483647,0,0,1,1,2,2,3,3,4,4,5,5,6,6,7,7,8,8,9,9,10,10,11,11,12,12,13,13,14,14,15,15,20,20,21,21,22,22,24,24,25,25,26,26,27,27,28,28,30,30],"right_children":[2,4,6,8,10,12,14,16,18,20,22,24,26,28,30,32,-1,-1,-1,-1,34,36,38,-1,40,42,44,46,48,-1,50,-1,-1,-1,-1,-1,-1,-1,-1,-1,-1,-1,-1,-1,-1,-1,-1,-1,-1,-1,-1],"split_conditions":[8.124859E1,2.7686432E1,1.4260774E2,1E0,1E0,1E0,1E0,1E0,1.3786415E1,1E0,4.903462E1,2E0,5E0,1E0,1E0,1.3E1,-7.6291636E-2,-1.4876316E-1,-2.2479698E-2,3.6668822E-2,2E0,1.8E1,6E0,1.426679E-1,5E0,1.2E1,1.1E1,1E0,1.1E1,-1.5209231E-1,6E0,7.21241E-2,9.762976E-3,-2.530304E-2,-1.0284793E-1,-3.164619E-2,-3.773313E-2,-1.2398528E-2,-4.2414367E-2,-7.841374E-3,1.00755356E-1,2.6408587E-2,-1.655343E-2,1.6277062E-4,5.7455707E-2,1.17102854E-1,-1.2046909E-1,1.1528625E-1,8.747E-2,6.8174206E-2,-1.9583877E-3],"split_indices":[13,13,13,8,0,5,6,0,13,8,13,8,8,3,4,3,0,0,0,0,4,3,8,0,8,10,3,5,3,0,8,0,0,0,0,0,0,0,0,0,0,0,0,0,0,0,0,0,0,0,0],"split_type":[0,0,0,0,0,0,0,0,0,0,0,0,0,0,0,0,0,0,0,0,0,0,0,0,0,0,0,0,0,0,0,0,0,0,0,0,0,0,0,0,0,0,0,0,0,0,0,0,0,0,0],"sum_hessian":[1.952E3,1.307E3,6.45E2,2.6E1,1.281E3,1.79E2,4.66E2,3E0,2.3E1,1.3E1,1.268E3,1.2E1,1.67E2,3.82E2,8.4E1,2E0,1E0,2.2E1,1E0,1E0,1.2E1,1.147E3,1.21E2,5E0,7E0,1.17E2,5E1,1E1,3.72E2,5E0,7.9E1,1E0,1E0,2E0,1E1,9.48E2,1.99E2,1.08E2,1.3E1,4E0,3E0,9.1E1,2.6E1,1.8E1,3.2E1,6E0,4E0,9.2E1,2.8E2,7E1,9E0],"tree_param":{"num_deleted":"0","num_feature":"14","num_nodes":"51","size_leaf_vector":"1"}},{"base_weights":[1.2278405E-2,-6.0612774E-1,1.3862095E0,-2.659326E0,-5.6416774E-1,1.0812964E0,2.0304563E0,-2.0844586E-2,-2.8655708E0,-5.911822E-1,-4.946908E-2,-7.8522027E-1,1.1527889E0,2.7824733E0,1.9087652E0,7.0321E-2,-7.438435E-2,-2.9442735E0,-2.191771E-2,-6.6799015E-1,-5.5515647E-1,1.01764835E-1,-9.4680226E-1,8.846104E-1,-1.536402E-1,7.285287E-1,1.3922353E0,2.90095E0,9.133276E-1,7.579498E-3,1.9533911E0,-1.5421472E-1,-7.240472E-2,-3.9124962E-2,-2.9019741E-2,-9.126496E-2,-2.757439E-2,-4.4344007E-3,4.3171458E-2,-7.402479E-2,9.9431025E-3,-3.145251E-2,8.187361E-2,1.0203516E-1,3.191283E-2,4.5579467E-2,7.731896E-2,9.523132E-2,1.6991282E-1,8.4571116E-2,-1.357154E-2,2.5936771E-2,-4.8426103E-2,3.1325284E-2,1.0032847E-1],"categories":[],"categories_nodes":[],"categories_segments":[],"categories_sizes":[],"default_left":[0,0,0,0,0,0,0,0,0,0,0,0,0,0,0,0,0,0,0,0,0,0,0,0,0,0,0,0,0,0,0,0,0,0,0,0,0,0,0,0,0,0,0,0,0,0,0,0,0,0,0,0,0,0,0],"id":2,"left_children":[1,3,5,7,9,11,13,15,17,19,21,23,25,27,29,-1,-1,31,-1,33,35,37,39,41,-1,43,45,47,49,51,53,-1,-1,-1,-1,-1,-1,-1,-1,-1,-1,-1,-1,-1,-1,-1,-1,-1,-1,-1,-1,-1,-1,-1,-1],"loss_changes":[1.6806711E3,1.156889E2,1.18107056E2,1.4344284E1,1.8510681E1,5.6854095E1,1.2156494E1,8.381154E0,3.14682E0,3.0237732E0,9.408946E0,6.405509E1,3.9815002E1,2.50531E0,1.4382019E1,0E0,0E0,1.0832214E-1,0E0,3.4217377E0,2.8190002E0,8.712657E0,6.536914E0,1.2526666E1,0E0,1.5960625E1,1.7385315E1,4.3933105E0,3.3666656E0,2.9521282E0,1.0333862E1,0E0,0E0,0E0,0E0,0E0,0E0,0E0,0E0,0E0,0E0,0E0,0E0,0E0,0E0,0E0,0E0,0E0,0E0,0E0,0E0,0E0,0E0,0E0,0E0],"parents":[2147483647,0,0,1,1,2,2,3,3,4,4,5,5,6,6,7,7,8,8,9,9,10,10,11,11,12,12,13,13,14,14,17,17,19,19,20,20,21,21,22,22,23,23,25,25,26,26,27,27,28,28,29,29,30,30],"right_children":[2,4,6,8,10,12,14,16,18,20,22,24,26,28,30,-1,-1,32,-1,34,36,38,40,42,-1,44,46,48,50,52,54,-1,-1,-1,-1,-1,-1,-1,-1,-1,-1,-1,-1,-1,-1,-1,-1,-1,-1,-1,-1,-1,-1,-1,-1],"split_conditions":[8.760343E1,2.7686432E1,6.4444293E2,1E0,5.328519E1,1E0,1E0,1E0,1.3786415E1,3.9252888E1,6E0,1E0,1.4156195E2,1E0,2E0,7.0321E-2,-7.438435E-2,6E0,-2.191771E-2,3E0,1E0,5E0,7.5938736E1,2E0,-1.536402E-1,1E0,1E0,8.1348346E2,3E0,1E0,1E0,-1.5421472E-1,-7.240472E-2,-3.9124962E-2,-2.9019741E-2,-9.126496E-2,-2.757439E-2,-4.4344007E-3,4.3171458E-2,-7.402479E-2,9.9431025E-3,-3.145251E-2,8.187361E-2,1.0203516E-1,3.191283E-2,4.5579467E-2,7.731896E-2,9.523132E-2,1.6991282E-1,8.4571116E-2,-1.357154E-2,2.5936771E-2,-4.8426103E-2,3.1325284E-2,1.0032847E-1],"split_indices":[13,13,13,8,13,4,8,0,13,13,8,6,13,6,4,0,0,8,0,8,0,8,13,8,0,5,0,13,1,6,5,0,0,0,0,0,0,0,0,0,0,0,0,0,0,0,0,0,0,0,0,0,0,0,0],"split_type":[0,0,0,0,0,0,0,0,0,0,0,0,0,0,0,0,0,0,0,0,0,0,0,0,0,0,0,0,0,0,0,0,0,0,0,0,0,0,0,0,0,0,0,0,0,0,0,0,0,0,0,0,0,0,0],"sum_hessian":[1.976E3,1.363E3,6.13E2,2.6E1,1.337E3,4.18E2,1.95E2,2E0,2.4E1,1.27E3,6.7E1,1.5E1,4.03E2,2.4E1,1.71E2,1E0,1E0,2.3E1,1E0,3.99E2,8.71E2,5.8E1,9E0,9E0,6E0,1.47E2,2.56E2,2.2E1,2E0,4E0,1.67E2,2E1,3E0,1.69E2,2.3E2,1E0,8.7E2,4.7E1,1.1E1,6E0,3E0,3E0,6E0,8E0,1.39E2,6.4E1,1.92E2,9E0,1.3E1,1E0,1E0,3E0,1E0,7E0,1.6E2],"tree_param":{"num_deleted":"0","num_feature":"14","num_nodes":"55","size_leaf_vector":"1"}},{"base_weights":[-2.6478771E-2,-5.994731E-1,1.240119E0,-2.3429391E0,-5.5977017E-1,4.7146586E-1,1.5194471E0,3.7991144E-2,-2.612598E0,-5.793122E-1,-9.781673E-3,2.1088872E0,3.7457815E-1,1.4172002E0,2.3111675E0,1.0509846E0,-7.252474E-2,-2.6763597E0,-2.1369765E-2,-6.299699E-1,-5.022567E-1,7.298255E-1,-2.5882345E-1,1.2744209E-1,4.483667E-2,2.132652E-1,7.726915E-1,1.5156329E0,6.3725036E-1,2.3827832E0,-2.7450029E-2,6.856298E-2,7.76088E-3,-8.158492E-2,-1.4515865E-1,-3.2567613E-2,-2.1490762E-2,-5.643331E-4,-2.624452E-2,1.249398E-1,5.807591E-3,-5.067689E-3,-2.9920211E-2,-2.3850866E-3,3.0834839E-2,-1.1074457E-2,4.6694282E-2,7.9247735E-2,3.519293E-2,9.396496E-2,-2.8157456E-5,1.0424545E-1,1.8181373E-1],"categories":[],"categories_nodes":[],"categories_segments":[],"categories_sizes":[],"default_left":[0,0,0,0,0,0,0,0,0,0,0,0,0,0,0,0,0,0,0,0,0,0,0,0,0,0,0,0,0,0,0,0,0,0,0,0,0,0,0,0,0,0,0,0,0,0,0,0,0,0,0,0,0],"id":3,"left_children":[1,3,5,7,9,11,13,15,17,19,21,23,25,27,29,31,-1,33,-1,35,37,39,41,-1,-1,43,45,47,49,51,-1,-1,-1,-1,-1,-1,-1,-1,-1,-1,-1,-1,-1,-1,-1,-1,-1,-1,-1,-1,-1,-1,-1],"loss_changes":[1.4376711E3,9.281534E1,1.3155829E2,1.9617874E1,1.42838745E1,2.5296944E1,3.294153E1,7.515803E0,2.307724E0,4.601898E0,8.798872E0,2.1694412E0,9.883507E0,2.9758179E1,1.1733185E1,4.9518347E-1,0E0,9.699249E-1,0E0,2.9201965E0,5.6855774E0,1.2475113E1,1.7944262E0,0E0,0E0,1.2088499E1,7.4896126E0,1.87453E1,3.7422123E1,1.0142334E1,0E0,0E0,0E0,0E0,0E0,0E0,0E0,0E0,0E0,0E0,0E0,0E0,0E0,0E0,0E0,0E0,0E0,0E0,0E0,0E0,0E0,0E0,0E0],"parents":[2147483647,0,0,1,1,2,2,3,3,4,4,5,5,6,6,7,7,8,8,9,9,10,10,11,11,12,12,13,13,14,14,15,15,17,17,19,19,20,20,21,21,22,22,25,25,26,26,27,27,28,28,29,29],"right_children":[2,4,6,8,10,12,14,16,18,20,22,24,26,28,30,32,-1,34,-1,36,38,40,42,-1,-1,44,46,48,50,52,-1,-1,-1,-1,-1,-1,-1,-1,-1,-1,-1,-1,-1,-1,-1,-1,-1,-1,-1,-1,-1,-1,-1],"split_conditions":[8.760343E1,2.7686432E1,1.4260774E2,1E0,5.8722755E1,1E0,1.3890004E3,1E0,1.3786415E1,1.1E1,3E0,2E0,5E0,2.2E1,9.3483E3,3E0,-7.252474E-2,4E0,-2.1369765E-2,4.6857147E1,1.8E1,2E0,8.5174675E1,1.2744209E-1,4.483667E-2,9E0,8.771301E1,7.806191E-2,1E0,5.9399897E3,-2.7450029E-2,6.856298E-2,7.76088E-3,-8.158492E-2,-1.4515865E-1,-3.2567613E-2,-2.1490762E-2,-5.643331E-4,-2.624452E-2,1.249398E-1,5.807591E-3,-5.067689E-3,-2.9920211E-2,-2.3850866E-3,3.0834839E-2,-1.1074457E-2,4.6694282E-2,7.9247735E-2,3.519293E-2,9.396496E-2,-2.8157456E-5,1.0424545E-1,1.8181373E-1],"split_indices":[13,13,13,8,13,5,13,0,13,7,10,8,8,7,13,1,0,7,0,13,7,8,13,0,0,7,13,12,2,13,0,0,0,0,0,0,0,0,0,0,0,0,0,0,0,0,0,0,0,0,0,0,0],"split_type":[0,0,0,0,0,0,0,0,0,0,0,0,0,0,0,0,0,0,0,0,0,0,0,0,0,0,0,0,0,0,0,0,0,0,0,0,0,0,0,0,0,0,0,0,0,0,0,0,0,0,0,0,0],"sum_hessian":[1.979E3,1.363E3,6.16E2,2.9E1,1.334E3,1.65E2,4.51E2,3E0,2.6E1,1.288E3,4.6E1,8E0,1.57E2,4.02E2,4.9E1,2E0,1E0,2.5E1,1E0,7.72E2,5.16E2,1.1E1,3.5E1,5E0,3E0,1.13E2,4.4E1,3.56E2,4.6E1,4.8E1,1E0,1E0,1E0,6E0,1.9E1,6.95E2,7.7E1,2.3E1,4.93E2,2E0,9E0,2.5E1,1E1,6.9E1,4.4E1,6E0,3.8E1,3.27E2,2.9E1,1.5E1,3.1E1,4.1E1,7E0],"tree_param":{"num_deleted":"0","num_feature":"14","num_nodes":"53","size_leaf_vector":"1"}},{"base_weights":[-2.3184722E-2,-5.8929247E-1,1.1940504E0,-2.4909043E0,-5.512855E-1,5.3431296E-1,1.474271E0,7.5668553E-3,-2.6066475E0,-6.4589643E-1,-4.8200905E-1,2.0376656E0,3.91608E-1,1.6450213E0,7.0016134E-1,-1.5617685E0,-1.424574E-1,-5.70461E-1,-7.461907E-1,-5.4318255E-1,-3.7292418E-1,2.3048217E0,6.3499224E-1,1.9170564E0,2.755772E-1,1.5033386E0,2.365077E0,1.0769467E0,-1.1728079E0,-1.9754305E-2,-9.647121E-2,-3.5888214E-2,-2.245187E-2,-3.979266E-2,-2.9532937E-2,-2.7965734E-2,1.790588E-3,-1.4562157E-2,-4.2559367E-2,5.4365337E-2,1.2756728E-1,4.2133372E-2,-0E0,1.3317814E-1,3.5497814E-2,2.084216E-3,4.3115698E-2,1.1539564E-2,7.866868E-2,1.2870419E-1,8.007928E-2,6.7899264E-2,1.0764247E-2,-8.965937E-2,4.0071875E-2],"categories":[],"categories_nodes":[],"categories_segments":[],"categories_sizes":[],"default_left":[0,0,0,0,0,0,0,0,0,0,0,0,0,0,0,0,0,0,0,0,0,0,0,0,0,0,0,0,0,0,0,0,0,0,0,0,0,0,0,0,0,0,0,0,0,0,0,0,0,0,0,0,0,0,0],"id":4,"left_children":[1,3,5,7,9,11,13,-1,15,17,19,21,23,25,27,29,-1,31,33,35,37,39,41,43,45,47,49,51,53,-1,-1,-1,-1,-1,-1,-1,-1,-1,-1,-1,-1,-1,-1,-1,-1,-1,-1,-1,-1,-1,-1,-1,-1,-1,-1],"loss_changes":[1.3567649E3,9.545953E1,1.145564E2,8.59137E0,8.221039E0,3.9291855E1,5.650836E1,0E0,1.4437866E0,3.634079E0,4.8174133E0,4.2381973E0,2.9873268E1,3.2580627E1,5.8415775E1,2.007824E0,0E0,5.3024445E0,1.1987152E0,4.630493E0,1.0536999E1,7.639389E-1,5.1740456E-1,8.584927E0,2.210549E1,2.6371521E1,4.555603E0,1.6017212E1,1.8683243E1,0E0,0E0,0E0,0E0,0E0,0E0,0E0,0E0,0E0,0E0,0E0,0E0,0E0,0E0,0E0,0E0,0E0,0E0,0E0,0E0,0E0,0E0,0E0,0E0,0E0,0E0],"parents":[2147483647,0,0,1,1,2,2,3,3,4,4,5,5,6,6,8,8,9,9,10,10,11,11,12,12,13,13,14,14,15,15,17,17,18,18,19,19,20,20,21,21,22,22,23,23,24,24,25,25,26,26,27,27,28,28],"right_children":[2,4,6,8,10,12,14,-1,16,18,20,22,24,26,28,30,-1,32,34,36,38,40,42,44,46,48,50,52,54,-1,-1,-1,-1,-1,-1,-1,-1,-1,-1,-1,-1,-1,-1,-1,-1,-1,-1,-1,-1,-1,-1,-1,-1,-1,-1],"split_conditions":[7.5938736E1,1.1090042E1,1.4156195E2,1E0,3.9573673E1,1E0,1E0,7.5668553E-3,4E0,2E0,1.1E1,1.2E1,1E0,1.3681353E3,1.2E1,1.3E1,-1.424574E-1,4E0,5E0,5.8722755E1,6E0,8.5825386E1,1.1E1,4E0,5E0,9.421265E-3,5E0,5E0,4.25945E2,-1.9754305E-2,-9.647121E-2,-3.5888214E-2,-2.245187E-2,-3.979266E-2,-2.9532937E-2,-2.7965734E-2,1.790588E-3,-1.4562157E-2,-4.2559367E-2,5.4365337E-2,1.2756728E-1,4.2133372E-2,-0E0,1.3317814E-1,3.5497814E-2,2.084216E-3,4.3115698E-2,1.1539564E-2,7.866868E-2,1.2870419E-1,8.007928E-2,6.7899264E-2,1.0764247E-2,-8.965937E-2,4.0071875E-2],"split_indices":[13,13,13,8,13,5,6,0,7,5,10,10,7,13,10,3,0,7,8,13,8,13,3,8,8,11,8,8,13,0,0,0,0,0,0,0,0,0,0,0,0,0,0,0,0,0,0,0,0,0,0,0,0,0,0],"split_type":[0,0,0,0,0,0,0,0,0,0,0,0,0,0,0,0,0,0,0,0,0,0,0,0,0,0,0,0,0,0,0,0,0,0,0,0,0,0,0,0,0,0,0,0,0,0,0,0,0,0,0,0,0,0,0],"sum_hessian":[1.967E3,1.343E3,6.24E2,2.5E1,1.318E3,1.87E2,4.37E2,1E0,2.4E1,5.53E2,7.65E2,1.5E1,1.72E2,3.57E2,8E1,6E0,1.8E1,3.2E2,2.33E2,4.87E2,2.78E2,1.2E1,3E0,1.1E1,1.61E2,3.01E2,5.6E1,6.7E1,1.3E1,2E0,4E0,1.42E2,1.78E2,1.73E2,6E1,4.74E2,1.3E1,2.39E2,3.9E1,3E0,9E0,2E0,1E0,6E0,5E0,1.16E2,4.5E1,1.6E1,2.85E2,4.2E1,1.4E1,5E1,1.7E1,1E1,3E0],"tree_param":{"num_deleted":"0","num_feature":"14","num_nodes":"55","size_leaf_vector":"1"}},{"base_weights":[1.919027E-3,-5.419593E-1,1.1829959E0,-2.061263E0,-5.112213E-1,5.040712E-1,1.431698E0,4.3206073E-2,-2.3419855E0,-5.2995473E-1,4.9018748E-2,1.8906188E0,3.6326668E-1,1.1648126E0,1.7974318E0,1.0204988E0,-6.9716804E-2,-1.925154E-2,-2.408891E0,-5.929015E-1,-4.6002463E-1,6.8486154E-1,-1.8782912E-1,-0E0,2.0248082E0,2.2443923E-1,1.263306E0,-1.4581232E-1,1.234226E0,1.9675169E0,1.1206816E0,6.6659726E-2,7.377682E-3,-1.2405232E-1,-1.9840702E-2,-2.6946569E-2,-3.331663E-2,-2.4212435E-2,-1.1095556E-2,2.0240012E-3,6.529149E-2,-2.5296262E-2,1.8807909E-2,1.3158064E-1,5.1388662E-2,4.1037495E-3,2.754421E-2,9.0284996E-2,-1.4328169E-2,7.717764E-2,-1.3361123E-1,2.734068E-2,7.0401005E-2,9.4552144E-2,1.4636941E-1,1.4405447E-1,4.4868793E-2],"categories":[],"categories_nodes":[],"categories_segments":[],"categories_sizes":[],"default_left":[0,0,0,0,0,0,0,0,0,0,0,0,0,0,0,0,0,0,0,0,0,0,0,0,0,0,0,0,0,0,0,0,0,0,0,0,0,0,0,0,0,0,0,0,0,0,0,0,0,0,0,0,0,0,0,0,0],"id":5,"left_children":[1,3,5,7,9,11,13,15,17,19,21,23,25,27,29,31,-1,-1,33,35,37,39,41,-1,43,45,47,49,51,53,55,-1,-1,-1,-1,-1,-1,-1,-1,-1,-1,-1,-1,-1,-1,-1,-1,-1,-1,-1,-1,-1,-1,-1,-1,-1,-1],"loss_changes":[1.2488148E3,6.08472E1,1.0258978E2,1.5691124E1,1.3780853E1,3.149635E1,4.1338867E1,7.0051312E0,1.8045273E0,5.1859436E0,6.6540546E0,3.7812881E0,1.8560114E1,2.4124268E1,1.9010925E1,4.7410583E-1,0E0,0E0,1.9217148E0,2.1399689E0,3.3058395E0,4.614194E0,5.9441533E0,0E0,5.399433E0,6.0725446E0,1.7482155E1,6.3990047E1,2.8782196E1,4.8463135E0,1.2761101E1,0E0,0E0,0E0,0E0,0E0,0E0,0E0,0E0,0E0,0E0,0E0,0E0,0E0,0E0,0E0,0E0,0E0,0E0,0E0,0E0,0E0,0E0,0E0,0E0,0E0,0E0],"parents":[2147483647,0,0,1,1,2,2,3,3,4,4,5,5,6,6,7,7,8,8,9,9,10,10,11,11,12,12,13,13,14,14,15,15,18,18,19,19,20,20,21,21,22,22,24,24,25,25,26,26,27,27,28,28,29,29,30,30],"right_children":[2,4,6,8,10,12,14,16,18,20,22,24,26,28,30,32,-1,-1,34,36,38,40,42,-1,44,46,48,50,52,54,56,-1,-1,-1,-1,-1,-1,-1,-1,-1,-1,-1,-1,-1,-1,-1,-1,-1,-1,-1,-1,-1,-1,-1,-1,-1,-1],"split_conditions":[8.760343E1,2.7686432E1,1.4156195E2,1E0,6.8801506E1,1E0,6.4444293E2,1E0,1E0,4.4570362E1,3E0,2E0,9E0,1E0,1E0,1.3E1,-6.9716804E-2,-1.925154E-2,1.3786415E1,3E0,9E0,2E0,1E1,-0E0,3E0,5E0,1.4010123E2,1E0,4.63722E-2,5.9399897E3,1E0,6.6659726E-2,7.377682E-3,-1.2405232E-1,-1.9840702E-2,-2.6946569E-2,-3.331663E-2,-2.4212435E-2,-1.1095556E-2,2.0240012E-3,6.529149E-2,-2.5296262E-2,1.8807909E-2,1.3158064E-1,5.1388662E-2,4.1037495E-3,2.754421E-2,9.0284996E-2,-1.4328169E-2,7.717764E-2,-1.3361123E-1,2.734068E-2,7.0401005E-2,9.4552144E-2,1.4636941E-1,1.4405447E-1,4.4868793E-2],"split_indices":[13,13,13,8,13,5,13,6,3,13,10,4,4,4,2,3,0,0,13,5,4,10,3,0,8,8,13,6,11,13,8,0,0,0,0,0,0,0,0,0,0,0,0,0,0,0,0,0,0,0,0,0,0,0,0,0,0],"split_type":[0,0,0,0,0,0,0,0,0,0,0,0,0,0,0,0,0,0,0,0,0,0,0,0,0,0,0,0,0,0,0,0,0,0,0,0,0,0,0,0,0,0,0,0,0,0,0,0,0,0,0,0,0,0,0,0,0],"sum_hessian":[1.942E3,1.33E3,6.12E2,2.5E1,1.305E3,1.65E2,4.47E2,3E0,2.2E1,1.263E3,4.2E1,1.4E1,1.51E2,2.61E2,1.86E2,2E0,1E0,1E0,2.1E1,6.6E2,6.03E2,1.1E1,3.1E1,1E0,1.3E1,1.32E2,1.9E1,1.3E1,2.48E2,1.47E2,3.9E1,1E0,1E0,2E1,1E0,3.86E2,2.74E2,5.46E2,5.7E1,6E0,5E0,2E1,1.1E1,7E0,6E0,9.3E1,3.9E1,1.4E1,5E0,8E0,5E0,5.1E1,1.97E2,1.39E2,8E0,3E0,3.6E1],"tree_param":{"num_deleted":"0","num_feature":"14","num_nodes":"57","size_leaf_vector":"1"}},{"base_weights":[1.2505372E-2,7.834997E-1,-4.9112764E-1,-3.452579E-1,9.1558975E-1,-3.1555605E-1,-5.1053756E-1,-1.10917844E-1,-9.2703205E-1,-3.8756207E-1,1.0164393E0,-6.904646E-1,-2.4600354E-1,-5.441612E-1,-4.3666983E-1,-1.7796384E-1,9.194374E-2,-4.8358935E-1,-1.1704174E0,7.570556E-2,-5.880143E-1,1.1203227E0,4.453432E-1,1.9122822E-2,-8.547333E-1,-1.06527306E-1,-4.4365883E-1,4.91307E-2,-5.4851866E-1,-5.207781E-1,-2.6743457E-1,4.046947E-2,-1.4413433E-2,-2.8210733E-2,3.5509565E-3,-2.3286127E-2,-6.555888E-2,-9.5228545E-2,-1.7020829E-2,6.4584784E-2,3.951481E-2,-9.355071E-2,3.480465E-2,-5.746005E-2,-7.787678E-3,-2.4072863E-3,-2.410424E-2,1.8920563E-2,-2.5958097E-2,5.5099386E-3,-3.9052404E-3,-2.2358505E-2,-2.8579703E-2,-3.1379618E-2,-1.6411835E-2,-4.2260145E-3,-1.5837086E-2],"categories":[],"categories_nodes":[],"categories_segments":[],"categories_sizes":[],"default_left":[0,0,0,0,0,0,0,0,0,0,0,0,0,0,0,0,0,0,0,0,0,0,0,0,0,0,0,0,0,0,0,0,0,0,0,0,0,0,0,0,0,0,0,0,0,0,0,0,0,0,0,0,0,0,0,0,0],"id":6,"left_children":[1,3,5,7,9,11,13,15,17,19,21,23,25,27,29,31,-1,33,35,-1,37,39,41,-1,43,45,47,49,51,53,55,-1,-1,-1,-1,-1,-1,-1,-1,-1,-1,-1,-1,-1,-1,-1,-1,-1,-1,-1,-1,-1,-1,-1,-1,-1,-1],"loss_changes":[7.537125E2,1.1473108E2,3.75708E0,1.083635E1,9.0743835E1,2.8655968E0,2.2845764E0,7.8739824E0,1.7509289E0,1.9857445E1,3.7195435E1,3.5465775E0,2.737245E0,1.9382629E0,4.5645523E0,6.497979E0,0E0,5.365443E-1,6.003685E-1,0E0,1.41220665E1,2.9255554E1,5.926752E1,0E0,2.9837456E0,1.2831562E0,2.8174238E0,5.8436606E-2,1.3146667E0,4.284672E0,9.612665E-1,0E0,0E0,0E0,0E0,0E0,0E0,0E0,0E0,0E0,0E0,0E0,0E0,0E0,0E0,0E0,0E0,0E0,0E0,0E0,0E0,0E0,0E0,0E0,0E0,0E0,0E0],"parents":[2147483647,0,0,1,1,2,2,3,3,4,4,5,5,6,6,7,7,8,8,9,9,10,10,11,11,12,12,13,13,14,14,15,15,17,17,18,18,20,20,21,21,22,22,24,24,25,25,26,26,27,27,28,28,29,29,30,30],"right_children":[2,4,6,8,10,12,14,16,18,20,22,24,26,28,30,32,-1,34,36,-1,38,40,42,-1,44,46,48,50,52,54,56,-1,-1,-1,-1,-1,-1,-1,-1,-1,-1,-1,-1,-1,-1,-1,-1,-1,-1,-1,-1,-1,-1,-1,-1,-1,-1],"split_conditions":[5.9904563E-1,2E0,1E0,5E0,1.6640157E-2,4E0,4E0,1E1,3E0,1.2724825E-2,1E0,5E0,4E0,1E0,4E0,3E0,9.194374E-2,1E0,6E0,7.570556E-2,8.809495E-3,7.806191E-2,3E0,1.9122822E-2,4E0,1.9E1,8E0,2E0,2E0,1E0,3.3647377E-2,4.046947E-2,-1.4413433E-2,-2.8210733E-2,3.5509565E-3,-2.3286127E-2,-6.555888E-2,-9.5228545E-2,-1.7020829E-2,6.4584784E-2,3.951481E-2,-9.355071E-2,3.480465E-2,-5.746005E-2,-7.787678E-3,-2.4072863E-3,-2.410424E-2,1.8920563E-2,-2.5958097E-2,5.5099386E-3,-3.9052404E-3,-2.2358505E-2,-2.8579703E-2,-3.1379618E-2,-1.6411835E-2,-4.2260145E-3,-1.5837086E-2],"split_indices":[12,1,5,8,12,3,5,4,10,11,6,4,8,3,8,4,0,1,4,0,12,12,4,0,8,3,3,5,10,2,11,0,0,0,0,0,0,0,0,0,0,0,0,0,0,0,0,0,0,0,0,0,0,0,0,0,0],"split_type":[0,0,0,0,0,0,0,0,0,0,0,0,0,0,0,0,0,0,0,0,0,0,0,0,0,0,0,0,0,0,0,0,0,0,0,0,0,0,0,0,0,0,0,0,0,0,0,0,0,0,0,0,0,0,0,0,0],"sum_hessian":[1.939E3,7.66E2,1.173E3,8E1,6.86E2,1.19E2,1.054E3,5.8E1,2.2E1,4.9E1,6.37E2,1.7E1,1.02E2,7.19E2,3.35E2,5.7E1,1E0,9E0,1.3E1,4E0,4.5E1,5.38E2,9.9E1,2E0,1.5E1,6.1E1,4.1E1,5E0,7.14E2,2.22E2,1.13E2,5E0,5.2E1,8E0,1E0,3E0,1E1,6E0,3.9E1,3.52E2,1.86E2,9E0,9E1,1E1,5E0,5.4E1,7E0,3E0,3.8E1,4E0,1E0,1.37E2,5.77E2,1.41E2,8.1E1,2.5E1,8.8E1],"tree_param":{"num_deleted":"0","num_feature":"14","num_nodes":"57","size_leaf_vector":"1"}},{"base_weights":[1.0120597E-2,-4.8742235E-1,1.0769964E0,-1.8823618E0,-4.6155602E-1,4.1222876E-1,1.3447402E0,2.1533703E-2,-2.160134E0,-5.5124027E-1,-3.939351E-1,1.4808619E0,3.3378273E-1,1.5007915E0,6.8419796E-1,9.7996485E-1,-6.8844E-2,-2.2817087E0,-6.367839E-1,-5.064627E-1,-6.546753E-1,-4.2083937E-1,-1.6677155E-1,2.4951699E0,3.402569E-2,3.73696E-2,7.656719E-1,1.3722795E0,2.343226E0,-1.207428E-1,9.038336E-1,6.337861E-2,7.618759E-3,-1.2314828E-1,-4.8062716E-2,-4.6610036E-3,-4.059779E-2,-2.7156476E-2,-1.5252957E-2,-7.7357724E-2,-3.0545631E-2,-2.415872E-2,-1.62995E-2,-2.6829815E-3,-2.3413703E-2,1.498078E-1,3.975682E-2,-1.598503E-2,1.5790699E-2,-2.234008E-2,2.3893496E-2,8.390499E-2,2.1659201E-2,-1.0742166E-2,7.0740096E-2,1.2144291E-1,-3.5255235E-2,6.255849E-2,5.1878584E-3],"categories":[],"categories_nodes":[],"categories_segments":[],"categories_sizes":[],"default_left":[0,0,0,0,0,0,0,0,0,0,0,0,0,0,0,0,0,0,0,0,0,0,0,0,0,0,0,0,0,0,0,0,0,0,0,0,0,0,0,0,0,0,0,0,0,0,0,0,0,0,0,0,0,0,0,0,0,0,0],"id":7,"left_children":[1,3,5,7,9,11,13,15,17,19,21,23,25,27,29,31,-1,33,35,37,39,41,43,45,47,49,51,53,55,-1,57,-1,-1,-1,-1,-1,-1,-1,-1,-1,-1,-1,-1,-1,-1,-1,-1,-1,-1,-1,-1,-1,-1,-1,-1,-1,-1,-1,-1],"loss_changes":[1.0431077E3,4.7246613E1,1.10512024E2,1.2952766E1,7.6753235E0,1.4497486E1,4.4624634E1,6.6707354E0,2.1444168E0,2.1598816E0,4.485367E0,1.7272635E1,2.165408E1,3.5279297E1,6.1249184E1,3.789208E-1,0E0,1.8375168E0,1.1944318E-1,2.688652E0,5.322525E0,3.746544E0,2.7191684E0,3.200367E0,6.9863284E-1,2.1970932E1,1.999456E1,2.1615173E1,1.3892563E1,0E0,2.2522118E1,0E0,0E0,0E0,0E0,0E0,0E0,0E0,0E0,0E0,0E0,0E0,0E0,0E0,0E0,0E0,0E0,0E0,0E0,0E0,0E0,0E0,0E0,0E0,0E0,0E0,0E0,0E0,0E0],"parents":[2147483647,0,0,1,1,2,2,3,3,4,4,5,5,6,6,7,7,8,8,9,9,10,10,11,11,12,12,13,13,14,14,15,15,17,17,18,18,19,19,20,20,21,21,22,22,23,23,24,24,25,25,26,26,27,27,28,28,30,30],"right_children":[2,4,6,8,10,12,14,16,18,20,22,24,26,28,30,32,-1,34,36,38,40,42,44,46,48,50,52,54,56,-1,58,-1,-1,-1,-1,-1,-1,-1,-1,-1,-1,-1,-1,-1,-1,-1,-1,-1,-1,-1,-1,-1,-1,-1,-1,-1,-1,-1,-1],"split_conditions":[8.124859E1,2.7686432E1,1.4260774E2,1E0,3.9573673E1,1E0,1E0,1E0,6E0,2E1,9E0,4E0,1.1E1,1.3890004E3,1E0,1.3E1,-6.8844E-2,1.1090042E1,1.3E1,1.4E1,1E0,1.5E1,5E0,9E0,5E0,4E0,2E1,1E0,9.3483E3,-1.207428E-1,5E0,6.337861E-2,7.618759E-3,-1.2314828E-1,-4.8062716E-2,-4.6610036E-3,-4.059779E-2,-2.7156476E-2,-1.5252957E-2,-7.7357724E-2,-3.0545631E-2,-2.415872E-2,-1.62995E-2,-2.6829815E-3,-2.3413703E-2,1.498078E-1,3.975682E-2,-1.598503E-2,1.5790699E-2,-2.234008E-2,2.3893496E-2,8.390499E-2,2.1659201E-2,-1.0742166E-2,7.0740096E-2,1.2144291E-1,-3.5255235E-2,6.255849E-2,5.1878584E-3],"split_indices":[13,13,13,8,13,7,6,0,8,7,4,8,7,13,4,3,0,13,3,7,0,7,8,4,8,8,7,3,13,0,8,0,0,0,0,0,0,0,0,0,0,0,0,0,0,0,0,0,0,0,0,0,0,0,0,0,0,0,0],"split_type":[0,0,0,0,0,0,0,0,0,0,0,0,0,0,0,0,0,0,0,0,0,0,0,0,0,0,0,0,0,0,0,0,0,0,0,0,0,0,0,0,0,0,0,0,0,0,0,0,0,0,0,0,0,0,0,0,0,0,0],"sum_hessian":[1.963E3,1.339E3,6.24E2,2.3E1,1.316E3,1.8E2,4.44E2,3E0,2E1,5.62E2,7.54E2,1.1E1,1.69E2,3.58E2,8.6E1,2E0,1E0,1.8E1,2E0,3.97E2,1.65E2,6.73E2,8.1E1,6E0,5E0,1.01E2,6.8E1,3.13E2,4.5E1,5E0,8.1E1,1E0,1E0,1.5E1,3E0,1E0,1E0,3.34E2,6.3E1,6E0,1.59E2,4.03E2,2.7E2,6E1,2.1E1,4E0,2E0,2E0,3E0,4.8E1,5.3E1,1.7E1,5.1E1,8E0,3.05E2,4.4E1,1E0,5.6E1,2.5E1],"tree_param":{"num_deleted":"0","num_feature":"14","num_nodes":"59","size_leaf_vector":"1"}},{"base_weights":[-9.519462E-4,-4.768029E-1,1.0742757E0,-1.9320056E0,-4.4369444E-1,8.04758E-1,1.5025336E0,-2.0319986E0,-3.2140335E-1,-4.684413E-1,-1.0682554E-1,2.4124028E-1,9.5501876E-1,2.5500396E-1,1.5689669E0,-2.290756E0,-1.4147593E0,7.428286E-3,-3.4033537E-2,-5.127082E-1,-4.0310052E-1,-2.1645652E-1,8.147572E-1,-1.3320159E0,4.6083635E-1,6.075287E-1,1.2663245E0,1.9643912E0,-1.046412E0,1.5051674E0,2.7482414E0,-5.781863E-2,-1.2625623E-1,3.760845E-3,-8.8266686E-2,-3.0385608E-2,-2.3624076E-2,1.0149158E-2,-2.1363469E-2,-4.1638217E-3,-2.5325073E-2,-1.3348239E-2,9.8493606E-2,4.914074E-2,-1.239387E-1,-1.5344662E-2,4.434631E-2,1.0339258E-1,2.3364356E-2,8.3462745E-2,4.5016643E-2,2.5749622E-2,1.0656363E-1,-8.553587E-2,2.9883472E-2,8.038868E-2,3.1726845E-2,1.5422451E-1,4.5108195E-2],"categories":[],"categories_nodes":[],"categories_segments":[],"categories_sizes":[],"default_left":[0,0,0,0,0,0,0,0,0,0,0,0,0,0,0,0,0,0,0,0,0,0,0,0,0,0,0,0,0,0,0,0,0,0,0,0,0,0,0,0,0,0,0,0,0,0,0,0,0,0,0,0,0,0,0,0,0,0,0],"id":8,"left_children":[1,3,5,7,9,11,13,15,17,19,21,23,25,27,29,31,33,-1,-1,35,37,39,41,43,45,47,49,51,53,55,57,-1,-1,-1,-1,-1,-1,-1,-1,-1,-1,-1,-1,-1,-1,-1,-1,-1,-1,-1,-1,-1,-1,-1,-1,-1,-1,-1,-1],"loss_changes":[1.0073759E3,6.467023E1,6.8275635E1,3.9430313E0,1.1029907E1,3.1233612E1,1.864508E1,8.6061096E-1,6.608685E-1,3.2999573E0,9.512692E0,2.8165192E1,3.0846954E1,3.106747E1,1.1990295E1,1.4974136E0,6.047619E0,0E0,0E0,2.4214325E0,7.550522E0,3.143612E0,1.319131E1,2.913128E1,2.3555841E1,2.765672E1,2.0950409E1,8.9048386E-2,9.871125E0,1.7604675E1,3.0260315E0,0E0,0E0,0E0,0E0,0E0,0E0,0E0,0E0,0E0,0E0,0E0,0E0,0E0,0E0,0E0,0E0,0E0,0E0,0E0,0E0,0E0,0E0,0E0,0E0,0E0,0E0,0E0,0E0],"parents":[2147483647,0,0,1,1,2,2,3,3,4,4,5,5,6,6,7,7,8,8,9,9,10,10,11,11,12,12,13,13,14,14,15,15,16,16,19,19,20,20,21,21,22,22,23,23,24,24,25,25,26,26,27,27,28,28,29,29,30,30],"right_children":[2,4,6,8,10,12,14,16,18,20,22,24,26,28,30,32,34,-1,-1,36,38,40,42,44,46,48,50,52,54,56,58,-1,-1,-1,-1,-1,-1,-1,-1,-1,-1,-1,-1,-1,-1,-1,-1,-1,-1,-1,-1,-1,-1,-1,-1,-1,-1,-1,-1],"split_conditions":[8.760343E1,2.7686432E1,5.12357E2,1E1,5.05999E1,1E0,1E0,4E0,1E0,1.2E1,1.9E1,1E0,1.4260774E2,1E0,5.9399897E3,4E0,3E0,7.428286E-3,-3.4033537E-2,7E0,1.8E1,2E0,9E0,1E0,3.5313208E2,1E0,2E0,2E0,1E0,2.2E1,1.1E1,-5.781863E-2,-1.2625623E-1,3.760845E-3,-8.8266686E-2,-3.0385608E-2,-2.3624076E-2,1.0149158E-2,-2.1363469E-2,-4.1638217E-3,-2.5325073E-2,-1.3348239E-2,9.8493606E-2,4.914074E-2,-1.239387E-1,-1.5344662E-2,4.434631E-2,1.0339258E-1,2.3364356E-2,8.3462745E-2,4.5016643E-2,2.5749622E-2,1.0656363E-1,-8.553587E-2,2.9883472E-2,8.038868E-2,3.1726845E-2,1.5422451E-1,4.5108195E-2],"split_indices":[13,13,13,4,13,0,3,5,7,7,3,4,13,5,13,7,1,0,0,4,7,5,4,6,13,5,5,10,6,7,1,0,0,0,0,0,0,0,0,0,0,0,0,0,0,0,0,0,0,0,0,0,0,0,0,0,0,0,0],"split_type":[0,0,0,0,0,0,0,0,0,0,0,0,0,0,0,0,0,0,0,0,0,0,0,0,0,0,0,0,0,0,0,0,0,0,0,0,0,0,0,0,0,0,0,0,0,0,0,0,0,0,0,0,0,0,0,0,0,0,0],"sum_hessian":[1.967E3,1.364E3,6.03E2,2.9E1,1.335E3,3.72E2,2.31E2,2.7E1,2E0,1.243E3,9.2E1,7.9E1,2.93E2,1.2E1,2.19E2,1.7E1,1E1,1E0,1E0,7.36E2,5.07E2,8.3E1,9E0,9E0,7E1,1.4E2,1.53E2,5E0,7E0,2.1E2,9E0,4E0,1.3E1,2E0,8E0,2.14E2,5.22E2,1.9E1,4.88E2,5.8E1,2.5E1,5E0,4E0,3E0,6E0,2.5E1,4.5E1,1.1E1,1.29E2,7.1E1,8.2E1,1E0,4E0,5E0,2E0,1.87E2,2.3E1,7E0,2E0],"tree_param":{"num_deleted":"0","num_feature":"14","num_nodes":"59","size_leaf_vector":"1"}},{"base_weights":[-2.2233855E-2,-4.448277E-1,9.0098226E-1,-1.8238814E0,-4.1918585E-1,5.521322E-1,1.2100122E0,9.525693E-1,-2.12413E0,-4.3942487E-1,-2.2609353E-2,1.5763504E-2,7.072581E-1,1.3227903E0,4.99962E-1,6.1700117E-2,7.2425823E-3,-1.0704802E0,-2.2932477E0,-4.802152E-1,-3.6158264E-1,-2.0604001E-1,2.9516968E-1,6.793528E-1,-4.3005335E-1,1.1215459E0,4.819404E-1,1.0574011E0,1.5724422E0,-2.854888E-1,1.8625245E0,-1.3888639E-2,-7.365138E-2,-1.2045147E-1,-4.389977E-2,-1.2876058E-2,-2.5351135E-2,-2.1276383E-2,-7.1375533E-3,2.1358822E-2,-1.6310995E-2,5.6804396E-4,6.756855E-2,1.5850533E-3,6.356683E-2,-9.1471754E-2,-1.1048554E-2,6.944799E-2,-5.3592183E-2,1.6087445E-3,3.2156598E-2,-4.302312E-2,5.6836136E-2,6.909599E-2,1.160992E-1,-5.190104E-2,4.6073873E-2,1.3149339E-1,5.261987E-2],"categories":[],"categories_nodes":[],"categories_segments":[],"categories_sizes":[],"default_left":[0,0,0,0,0,0,0,0,0,0,0,0,0,0,0,0,0,0,0,0,0,0,0,0,0,0,0,0,0,0,0,0,0,0,0,0,0,0,0,0,0,0,0,0,0,0,0,0,0,0,0,0,0,0,0,0,0,0,0],"id":9,"left_children":[1,3,5,7,9,11,13,15,17,19,21,23,25,27,29,-1,-1,31,33,35,37,39,41,43,45,47,49,51,53,55,57,-1,-1,-1,-1,-1,-1,-1,-1,-1,-1,-1,-1,-1,-1,-1,-1,-1,-1,-1,-1,-1,-1,-1,-1,-1,-1,-1,-1],"loss_changes":[7.5918805E2,4.621872E1,6.502466E1,2.214756E1,1.04743805E1,2.3962708E1,2.5021576E1,3.653226E-1,1.1289444E0,3.7048645E0,3.8407807E0,1.9842484E1,2.0208717E1,1.6493195E1,4.9919827E1,0E0,0E0,1.0112638E0,5.0566864E-1,4.6584167E0,5.955471E0,3.3254523E0,7.042596E0,1.0181171E1,1.1094144E1,4.727076E1,1.0569038E1,2.1999405E1,1.6556244E1,2.8216585E1,7.432083E0,0E0,0E0,0E0,0E0,0E0,0E0,0E0,0E0,0E0,0E0,0E0,0E0,0E0,0E0,0E0,0E0,0E0,0E0,0E0,0E0,0E0,0E0,0E0,0E0,0E0,0E0,0E0,0E0],"parents":[2147483647,0,0,1,1,2,2,3,3,4,4,5,5,6,6,7,7,8,8,9,9,10,10,11,11,12,12,13,13,14,14,17,17,18,18,19,19,20,20,21,21,22,22,23,23,24,24,25,25,26,26,27,27,28,28,29,29,30,30],"right_children":[2,4,6,8,10,12,14,16,18,20,22,24,26,28,30,-1,-1,32,34,36,38,40,42,44,46,48,50,52,54,56,58,-1,-1,-1,-1,-1,-1,-1,-1,-1,-1,-1,-1,-1,-1,-1,-1,-1,-1,-1,-1,-1,-1,-1,-1,-1,-1,-1,-1],"split_conditions":[8.760343E1,1.3786415E1,3.9809344E2,1E0,5.328519E1,5E0,2.2E1,3E0,4E0,1E0,1E1,2E0,2E0,9E0,1.3667261E3,6.1700117E-2,7.2425823E-3,1.3E1,1E1,1E0,2.1E1,1E0,1.9E1,4E0,1E0,1.3E1,9E0,1E0,1.2186891E3,4E0,3E0,-1.3888639E-2,-7.365138E-2,-1.2045147E-1,-4.389977E-2,-1.2876058E-2,-2.5351135E-2,-2.1276383E-2,-7.1375533E-3,2.1358822E-2,-1.6310995E-2,5.6804396E-4,6.756855E-2,1.5850533E-3,6.356683E-2,-9.1471754E-2,-1.1048554E-2,6.944799E-2,-5.3592183E-2,1.6087445E-3,3.2156598E-2,-4.302312E-2,5.6836136E-2,6.909599E-2,1.160992E-1,-5.190104E-2,4.6073873E-2,1.3149339E-1,5.261987E-2],"split_indices":[13,13,13,8,13,7,7,1,7,2,7,7,5,7,13,0,0,3,1,5,7,7,3,10,0,3,7,3,13,10,8,0,0,0,0,0,0,0,0,0,0,0,0,0,0,0,0,0,0,0,0,0,0,0,0,0,0,0,0],"split_type":[0,0,0,0,0,0,0,0,0,0,0,0,0,0,0,0,0,0,0,0,0,0,0,0,0,0,0,0,0,0,0,0,0,0,0,0,0,0,0,0,0,0,0,0,0,0,0,0,0,0,0,0,0,0,0,0,0,0,0],"sum_hessian":[1.944E3,1.334E3,6.1E2,2.3E1,1.311E3,2.88E2,3.22E2,2E0,2.1E1,1.247E3,6.4E1,6.5E1,2.23E2,2.77E2,4.5E1,1E0,1E0,4E0,1.7E1,8.14E2,4.33E2,4.1E1,2.3E1,2.6E1,3.9E1,7.7E1,1.46E2,1.37E2,1.4E2,2.9E1,1.6E1,2E0,2E0,1.5E1,2E0,8.9E1,7.25E2,3.34E2,9.9E1,6E0,3.5E1,1.9E1,4E0,1.3E1,1.3E1,4E0,3.5E1,6.9E1,8E0,3.9E1,1.07E2,5E0,1.32E2,1.14E2,2.6E1,1.8E1,1.1E1,7E0,9E0],"tree_param":{"num_deleted":"0","num_feature":"14","num_nodes":"59","size_leaf_vector":"1"}},{"base_weights":[5.5439877E-3,-4.3070048E-1,9.577623E-1,-1.7570616E0,-3.9994416E-1,8.3435404E-1,1.7360208E0,-1.1420902E-1,-1.2731946E0,-4.2642155E-1,-6.684726E-2,4.890324E-1,9.880026E-1,-4.158293E-1,1.7955211E0,-1.3382573E0,-1.6781961E-3,-4.7284707E-1,-3.4880912E-1,-1.8763562E-1,3.3083805E-1,1.58563E0,3.8484025E-1,-1.9614737E-1,1.0288644E0,6.588749E-2,-9.9574685E-2,1.9343034E0,1.1967664E0,-2.2060659E-2,-7.459115E-2,-2.9827554E-2,-2.1815924E-2,-2.0367779E-2,-1.3085815E-2,-3.3854E-2,-2.2082885E-3,2.4672903E-3,6.571705E-2,9.336823E-2,1.9472621E-2,2.311547E-3,2.7635563E-2,-5.9402425E-2,8.04252E-2,5.5408966E-2,2.2781221E-2,8.951181E-2,1.4186941E-1,1.0261265E-1,1.485759E-2],"categories":[],"categories_nodes":[],"categories_segments":[],"categories_sizes":[],"default_left":[0,0,0,0,0,0,0,0,0,0,0,0,0,0,0,0,0,0,0,0,0,0,0,0,0,0,0,0,0,0,0,0,0,0,0,0,0,0,0,0,0,0,0,0,0,0,0,0,0,0,0],"id":10,"left_children":[1,3,5,7,9,11,13,-1,15,17,19,21,23,25,27,29,-1,31,33,35,37,39,41,43,45,-1,-1,47,49,-1,-1,-1,-1,-1,-1,-1,-1,-1,-1,-1,-1,-1,-1,-1,-1,-1,-1,-1,-1,-1,-1],"loss_changes":[8.117414E2,5.37455E1,5.726532E1,4.387718E0,1.1484589E1,2.75961E1,1.1511566E1,0E0,1.2696705E0,4.127182E0,4.7552605E0,1.8159382E1,1.8042908E1,1.0886281E1,4.1028137E0,1.4903221E0,0E0,3.0525818E0,2.1669044E0,5.2347302E0,6.1662884E0,3.7651367E0,8.611483E0,2.51394E1,1.5479279E1,0E0,0E0,2.7843475E0,1.3008181E1,0E0,0E0,0E0,0E0,0E0,0E0,0E0,0E0,0E0,0E0,0E0,0E0,0E0,0E0,0E0,0E0,0E0,0E0,0E0,0E0,0E0,0E0],"parents":[2147483647,0,0,1,1,2,2,3,3,4,4,5,5,6,6,8,8,9,9,10,10,11,11,12,12,13,13,14,14,15,15,17,17,18,18,19,19,20,20,21,21,22,22,23,23,24,24,27,27,28,28],"right_children":[2,4,6,8,10,12,14,-1,16,18,20,22,24,26,28,30,-1,32,34,36,38,40,42,44,46,-1,-1,48,50,-1,-1,-1,-1,-1,-1,-1,-1,-1,-1,-1,-1,-1,-1,-1,-1,-1,-1,-1,-1,-1,-1],"split_conditions":[8.760343E1,2.7686432E1,1.3667261E3,2.0813832E0,5.038256E1,1.6696346E2,1E0,-1.1420902E-1,9E0,1E0,9E0,1E0,1E0,5E0,1.1E1,2E0,-1.6781961E-3,4E0,1E1,4E0,1.7E1,1.2E1,5E0,1E0,2.2E1,6.588749E-2,-9.9574685E-2,5.9399897E3,2.4931145E3,-2.2060659E-2,-7.459115E-2,-2.9827554E-2,-2.1815924E-2,-2.0367779E-2,-1.3085815E-2,-3.3854E-2,-2.2082885E-3,2.4672903E-3,6.571705E-2,9.336823E-2,1.9472621E-2,2.311547E-3,2.7635563E-2,-5.9402425E-2,8.04252E-2,5.5408966E-2,2.2781221E-2,8.951181E-2,1.4186941E-1,1.0261265E-1,1.485759E-2],"split_indices":[13,13,13,13,13,13,7,0,1,2,4,5,4,1,1,7,0,7,7,7,3,10,7,0,7,0,0,13,13,0,0,0,0,0,0,0,0,0,0,0,0,0,0,0,0,0,0,0,0,0,0],"split_type":[0,0,0,0,0,0,0,0,0,0,0,0,0,0,0,0,0,0,0,0,0,0,0,0,0,0,0,0,0,0,0,0,0,0,0,0,0,0,0,0,0,0,0,0,0,0,0,0,0,0,0],"sum_hessian":[1.952E3,1.339E3,6.13E2,2.9E1,1.31E3,5.31E2,8.2E1,1.2E1,1.7E1,1.213E3,9.7E1,1.65E2,3.66E2,2E0,8E1,1.6E1,1E0,7.55E2,4.58E2,7.5E1,2.2E1,1.3E1,1.52E2,1.2E1,3.54E2,1E0,1E0,6.3E1,1.7E1,3E0,1.3E1,1.68E2,5.87E2,2.71E2,1.87E2,1.6E1,5.9E1,1.8E1,4E0,1E1,3E0,5.1E1,1.01E2,8E0,4E0,3.1E2,4.4E1,5.7E1,6E0,8E0,9E0],"tree_param":{"num_deleted":"0","num_feature":"14","num_nodes":"51","size_leaf_vector":"1"}},{"base_weights":[-2.7899619E-3,-3.3854994E-1,9.8658544E-1,-4.0539426E-1,2.4849938E-1,1.1376412E0,3.2357505E-1,-1.6793851E0,-3.7708664E-1,8.067836E-2,1.3219111E0,-2.7008137E-1,1.1745908E0,-2.1435444E0,6.146182E-1,-1.1356131E-1,-1.2188497E0,-4.801369E-1,-3.398629E-1,1.7844751E-1,-3.3309E-1,5.445592E-1,1.6909037E0,9.732088E-2,-1.8289976E0,7.2747946E-1,1.3274556E0,-1.20685376E-1,4.6980837E-3,1.632749E-1,8.873049E-1,-2.968832E-2,-7.029498E-2,-1.963239E-2,-2.9203147E-2,-6.1393264E-3,-1.7486732E-2,1.3921781E-2,-1.6014818E-2,1.7079368E-2,-3.0999858E-2,-2.7985621E-2,6.6953234E-2,1.2034338E-1,2.1890067E-2,-1.1126214E-1,-4.752515E-2,5.9224516E-2,1.9962547E-2,6.443074E-2,1.1929288E-1,7.5570874E-2,-2.0054383E-2,5.312283E-2,1.3621502E-2],"categories":[],"categories_nodes":[],"categories_segments":[],"categories_sizes":[],"default_left":[0,0,0,0,0,0,0,0,0,0,0,0,0,0,0,0,0,0,0,0,0,0,0,0,0,0,0,0,0,0,0,0,0,0,0,0,0,0,0,0,0,0,0,0,0,0,0,0,0,0,0,0,0,0,0],"id":11,"left_children":[1,3,5,7,9,11,13,15,17,19,21,23,25,27,29,-1,31,33,35,37,39,41,43,-1,45,47,49,-1,-1,51,53,-1,-1,-1,-1,-1,-1,-1,-1,-1,-1,-1,-1,-1,-1,-1,-1,-1,-1,-1,-1,-1,-1,-1,-1],"loss_changes":[6.46384E2,5.713344E1,4.8860474E1,4.6224167E1,2.6594109E1,2.1265625E1,6.7942116E1,4.514496E0,4.6571198E0,5.302967E0,4.592396E0,4.155695E1,2.5552734E1,6.503689E0,1.0088398E1,0E0,1.0698509E0,2.7280502E0,1.9305725E0,5.3710523E0,5.078869E0,7.846224E0,1.0325092E1,0E0,4.0187836E-3,1.4669121E1,8.479767E0,0E0,0E0,2.5825003E1,5.1772766E0,0E0,0E0,0E0,0E0,0E0,0E0,0E0,0E0,0E0,0E0,0E0,0E0,0E0,0E0,0E0,0E0,0E0,0E0,0E0,0E0,0E0,0E0,0E0,0E0],"parents":[2147483647,0,0,1,1,2,2,3,3,4,4,5,5,6,6,7,7,8,8,9,9,10,10,11,11,12,12,13,13,14,14,16,16,17,17,18,18,19,19,20,20,21,21,22,22,24,24,25,25,26,26,29,29,30,30],"right_children":[2,4,6,8,10,12,14,16,18,20,22,24,26,28,30,-1,32,34,36,38,40,42,44,-1,46,48,50,-1,-1,52,54,-1,-1,-1,-1,-1,-1,-1,-1,-1,-1,-1,-1,-1,-1,-1,-1,-1,-1,-1,-1,-1,-1,-1,-1],"split_conditions":[1.1329927E2,6.8801506E1,1E0,2.7686432E1,9E0,1E0,2E0,2.0813832E0,3.6730648E1,1.2E1,1E1,1E0,3.326523E2,5E0,5E0,-1.1356131E-1,2.6778333E0,2E0,1E0,1.2E1,7.793821E1,8.5825386E1,2E0,9.732088E-2,2E0,2E0,5.9399897E3,-1.20685376E-1,4.6980837E-3,3E0,1E0,-2.968832E-2,-7.029498E-2,-1.963239E-2,-2.9203147E-2,-6.1393264E-3,-1.7486732E-2,1.3921781E-2,-1.6014818E-2,1.7079368E-2,-3.0999858E-2,-2.7985621E-2,6.6953234E-2,1.2034338E-1,2.1890067E-2,-1.1126214E-1,-4.752515E-2,5.9224516E-2,1.9962547E-2,6.443074E-2,1.1929288E-1,7.5570874E-2,-2.0054383E-2,5.312283E-2,1.3621502E-2],"split_indices":[13,13,6,13,4,3,4,13,13,3,3,5,13,1,1,0,13,5,1,10,13,13,5,0,5,5,13,0,0,10,9,0,0,0,0,0,0,0,0,0,0,0,0,0,0,0,0,0,0,0,0,0,0,0,0],"split_type":[0,0,0,0,0,0,0,0,0,0,0,0,0,0,0,0,0,0,0,0,0,0,0,0,0,0,0,0,0,0,0,0,0,0,0,0,0,0,0,0,0,0,0,0,0,0,0,0,0,0,0,0,0,0,0],"sum_hessian":[1.944E3,1.452E3,4.92E2,1.304E3,1.48E2,4E2,9.2E1,2.7E1,1.277E3,1.29E2,1.9E1,1E1,3.9E2,9E0,8.3E1,1E1,1.7E1,3.35E2,9.42E2,1.05E2,2.4E1,7E0,1.2E1,4E0,6E0,1.01E2,2.89E2,8E0,1E0,3.2E1,5.1E1,5E0,1.2E1,1.85E2,1.5E2,4.2E1,9E2,8.8E1,1.7E1,7E0,1.7E1,3E0,4E0,7E0,5E0,3E0,3E0,4.1E1,6E1,2.81E2,8E0,9E0,2.3E1,3.9E1,1.2E1],"tree_param":{"num_deleted":"0","num_feature":"14","num_nodes":"55","size_leaf_vector":"1"}},{"base_weights":[1.7528571E-2,-3.7997413E-1,8.260111E-1,-1.6245475E0,-3.567887E-1,6.5485054E-1,1.2288471E0,-0E0,-1.7760596E0,-9.8837376E-1,-3.4713966E-1,-3.6009642E-1,6.922928E-1,1.1445495E0,2.3067951E0,6.27646E-2,-6.0660303E-2,-1.9173176E0,-2.0898657E-1,-1.1578566E0,4.9057893E-2,-3.604288E-1,-1.5317342E-1,9.251354E-1,-1.171295E-1,4.3810633E-1,8.788448E-1,1.4610299E0,8.810253E-1,2.8950855E-1,2.6381648E0,-1.0164761E-1,-4.6077058E-2,-0E0,-1.3295129E-2,8.344589E-3,-6.257412E-2,-1.9870073E-2,-1.5256229E-2,-4.261247E-3,-3.5319E-2,-2.6661772E-2,7.755894E-2,1.5877545E-2,5.0132908E-2,3.4784187E-2,7.0240766E-2,7.632941E-2,-3.5950784E-2,-4.8068624E-2,4.7378827E-2,6.4489365E-2,-4.0276222E-2,1.4522427E-1,-0E0],"categories":[],"categories_nodes":[],"categories_segments":[],"categories_sizes":[],"default_left":[0,0,0,0,0,0,0,0,0,0,0,0,0,0,0,0,0,0,0,0,0,0,0,0,0,0,0,0,0,0,0,0,0,0,0,0,0,0,0,0,0,0,0,0,0,0,0,0,0,0,0,0,0,0,0],"id":12,"left_children":[1,3,5,7,9,11,13,15,17,19,21,23,25,27,29,-1,-1,31,33,35,-1,37,39,41,-1,43,45,47,49,51,53,-1,-1,-1,-1,-1,-1,-1,-1,-1,-1,-1,-1,-1,-1,-1,-1,-1,-1,-1,-1,-1,-1,-1,-1],"loss_changes":[6.386072E2,3.76584E1,4.4168976E1,6.0568237E0,7.500656E0,1.7839386E1,1.4643097E1,6.095253E0,4.25663E0,7.4959393E0,3.2211761E0,4.562434E1,2.0632156E1,1.365744E1,7.6335373E0,0E0,0E0,1.3402557E-1,1.0382205E-2,2.5498753E0,0E0,2.2764893E0,3.0557497E0,1.0971976E1,0E0,1.2549007E1,2.347499E1,1.2754913E1,1.3416191E1,4.3733954E0,7.801323E0,0E0,0E0,0E0,0E0,0E0,0E0,0E0,0E0,0E0,0E0,0E0,0E0,0E0,0E0,0E0,0E0,0E0,0E0,0E0,0E0,0E0,0E0,0E0,0E0],"parents":[2147483647,0,0,1,1,2,2,3,3,4,4,5,5,6,6,7,7,8,8,9,9,10,10,11,11,12,12,13,13,14,14,17,17,18,18,19,19,21,21,22,22,23,23,25,25,26,26,27,27,28,28,29,29,30,30],"right_children":[2,4,6,8,10,12,14,16,18,20,22,24,26,28,30,-1,-1,32,34,36,-1,38,40,42,-1,44,46,48,50,52,54,-1,-1,-1,-1,-1,-1,-1,-1,-1,-1,-1,-1,-1,-1,-1,-1,-1,-1,-1,-1,-1,-1,-1,-1],"split_conditions":[7.5938736E1,2.7686432E1,6.4444293E2,1E0,1E0,1E0,4.1561514E3,1E0,1.1090042E1,2.3E1,4.981185E1,1E0,1.6696346E2,3E0,6E0,6.27646E-2,-6.0660303E-2,6E0,1E0,1E0,4.9057893E-2,1.2E1,6E0,2E0,-1.171295E-1,9E0,1.1E1,3.0986333E3,1E0,4E0,4E0,-1.0164761E-1,-4.6077058E-2,-0E0,-1.3295129E-2,8.344589E-3,-6.257412E-2,-1.9870073E-2,-1.5256229E-2,-4.261247E-3,-3.5319E-2,-2.6661772E-2,7.755894E-2,1.5877545E-2,5.0132908E-2,3.4784187E-2,7.0240766E-2,7.632941E-2,-3.5950784E-2,-4.8068624E-2,4.7378827E-2,6.4489365E-2,-4.0276222E-2,1.4522427E-1,-0E0],"split_indices":[13,13,13,8,0,4,13,0,13,7,13,6,13,8,7,0,0,8,0,8,0,7,8,8,0,4,10,13,7,7,10,0,0,0,0,0,0,0,0,0,0,0,0,0,0,0,0,0,0,0,0,0,0,0,0],"split_type":[0,0,0,0,0,0,0,0,0,0,0,0,0,0,0,0,0,0,0,0,0,0,0,0,0,0,0,0,0,0,0,0,0,0,0,0,0,0,0,0,0,0,0,0,0,0,0,0,0,0,0,0,0,0,0],"sum_hessian":[1.985E3,1.331E3,6.54E2,2.3E1,1.308E3,4.61E2,1.93E2,2E0,2.1E1,1.8E1,1.29E3,1.6E1,4.45E2,1.81E2,1.2E1,1E0,1E0,1.9E1,2E0,1.7E1,1E0,1.206E3,8.4E1,1E1,6E0,1.9E2,2.55E2,8E1,1.01E2,2E0,1E1,1.6E1,3E0,1E0,1E0,1E0,1.6E1,7.18E2,4.88E2,7.6E1,8E0,3E0,7E0,1.58E2,3.2E1,1.91E2,6.4E1,7.8E1,2E0,3E0,9.8E1,1E0,1E0,9E0,1E0],"tree_param":{"num_deleted":"0","num_feature":"14","num_nodes":"55","size_leaf_vector":"1"}},{"base_weights":[-3.578721E-3,-3.5999584E-1,7.2893804E-1,-1.5408661E0,-3.3426723E-1,5.4202044E-1,1.1653037E0,-0E0,-1.6625508E0,-9.029141E-1,-3.2641855E-1,8.313929E-3,6.715056E-1,9.34458E-1,1.5070733E0,6.119548E-2,-5.9143793E-2,-8.0893E-1,-1.8225114E0,-1.0851748E0,4.7831442E-2,-3.8240018E-1,-2.8556338E-1,-6.3829297E-1,2.825338E-1,1.6013883E0,5.8643734E-1,1.1261107E0,-4.4996458E-1,1.5648859E0,5.0226964E-2,-7.686355E-3,-5.365498E-2,-9.4135575E-2,-1.296275E-2,-3.591159E-2,-9.90723E-2,-1.9484222E-2,1.5648248E-2,-2.159727E-2,-1.33508565E-2,1.3400842E-2,-5.9653223E-2,-1.6908394E-2,3.458273E-2,4.6793338E-2,8.9815564E-2,1.4326664E-2,4.2449888E-2,2.2147657E-2,7.179937E-2,-4.18107E-2,6.702188E-2,1.0118419E-1,6.8206474E-2,3.190047E-2,-4.0328007E-2],"categories":[],"categories_nodes":[],"categories_segments":[],"categories_sizes":[],"default_left":[0,0,0,0,0,0,0,0,0,0,0,0,0,0,0,0,0,0,0,0,0,0,0,0,0,0,0,0,0,0,0,0,0,0,0,0,0,0,0,0,0,0,0,0,0,0,0,0,0,0,0,0,0,0,0,0,0],"id":13,"left_children":[1,3,5,7,9,11,13,15,17,19,21,23,25,27,29,-1,-1,31,33,35,-1,37,39,41,43,45,47,49,51,53,55,-1,-1,-1,-1,-1,-1,-1,-1,-1,-1,-1,-1,-1,-1,-1,-1,-1,-1,-1,-1,-1,-1,-1,-1,-1,-1],"loss_changes":[5.1612256E2,3.9705658E1,5.196985E1,5.3864365E0,5.3977966E0,3.1370163E1,1.3574493E1,5.7942996E0,1.8127594E0,6.8126335E0,2.7675629E0,1.6102884E1,2.7793976E1,3.1883057E1,6.160904E0,0E0,0E0,7.508614E-1,1.2739792E0,3.5689812E0,0E0,2.8597794E0,1.848175E0,1.3987727E1,1.652153E1,1.937439E0,2.6179543E1,2.1192276E1,1.1443596E1,3.6244354E0,2.5121553E0,0E0,0E0,0E0,0E0,0E0,0E0,0E0,0E0,0E0,0E0,0E0,0E0,0E0,0E0,0E0,0E0,0E0,0E0,0E0,0E0,0E0,0E0,0E0,0E0,0E0,0E0],"parents":[2147483647,0,0,1,1,2,2,3,3,4,4,5,5,6,6,7,7,8,8,9,9,10,10,11,11,12,12,13,13,14,14,17,17,18,18,19,19,21,21,22,22,23,23,24,24,25,25,26,26,27,27,28,28,29,29,30,30],"right_children":[2,4,6,8,10,12,14,16,18,20,22,24,26,28,30,-1,-1,32,34,36,-1,38,40,42,44,46,48,50,52,54,56,-1,-1,-1,-1,-1,-1,-1,-1,-1,-1,-1,-1,-1,-1,-1,-1,-1,-1,-1,-1,-1,-1,-1,-1,-1,-1],"split_conditions":[7.5938736E1,2.7686432E1,6.4444293E2,1E0,1E0,1E0,1.3667261E3,1E0,4E0,2.3E1,3.9573673E1,5E0,1E0,2.2E1,2E1,6.119548E-2,-5.9143793E-2,1.3E1,1.3786415E1,1.0277743E-2,4.7831442E-2,1E0,2E0,1E0,3E0,4.63722E-2,1.4156195E2,4E0,4E0,4.4659242E-2,3E0,-7.686355E-3,-5.365498E-2,-9.4135575E-2,-1.296275E-2,-3.591159E-2,-9.90723E-2,-1.9484222E-2,1.5648248E-2,-2.159727E-2,-1.33508565E-2,1.3400842E-2,-5.9653223E-2,-1.6908394E-2,3.458273E-2,4.6793338E-2,8.9815564E-2,1.4326664E-2,4.2449888E-2,2.2147657E-2,7.179937E-2,-4.18107E-2,6.702188E-2,1.0118419E-1,6.8206474E-2,3.190047E-2,-4.0328007E-2],"split_indices":[13,13,13,8,0,0,13,0,7,7,13,7,5,7,3,0,0,3,13,12,0,2,7,7,8,11,13,5,8,12,8,0,0,0,0,0,0,0,0,0,0,0,0,0,0,0,0,0,0,0,0,0,0,0,0,0,0],"split_type":[0,0,0,0,0,0,0,0,0,0,0,0,0,0,0,0,0,0,0,0,0,0,0,0,0,0,0,0,0,0,0,0,0,0,0,0,0,0,0,0,0,0,0,0,0,0,0,0,0,0,0,0,0,0,0,0,0],"sum_hessian":[1.975E3,1.329E3,6.46E2,2.7E1,1.302E3,4.54E2,1.92E2,2E0,2.5E1,1.6E1,1.286E3,8.9E1,3.65E2,1.17E2,7.5E1,1E0,1E0,5E0,2E1,1.5E1,1E0,5.38E2,7.48E2,2.6E1,6.3E1,2.9E1,3.36E2,1.03E2,1.4E1,7.2E1,3E0,2E0,3E0,1.9E1,1E0,1.2E1,3E0,5.33E2,5E0,8.1E1,6.67E2,1E1,1.6E1,2.5E1,3.8E1,8E0,2.1E1,1.58E2,1.78E2,3.3E1,7E1,1.2E1,2E0,1.9E1,5.3E1,2E0,1E0],"tree_param":{"num_deleted":"0","num_feature":"14","num_nodes":"57","size_leaf_vector":"1"}},{"base_weights":[-5.8542733E-4,-3.458257E-1,7.147057E-1,-1.3274889E0,-3.1855002E-1,4.5511672E-1,9.6015495E-1,7.009556E-2,-1.5322157E0,-6.87679E-2,-3.1500092E-1,1.5229018E-1,6.3252294E-1,-9.0242034E-1,1.0032238E0,-1.0030327E0,-1.8919374E0,-3.3138677E-1,-1.5634277E-1,4.094233E-2,1.2327107E0,1.0511384E0,4.7766384E-1,7.054008E-1,-1.01409666E-1,8.4121716E-1,1.4306824E0,-1.3882788E-2,-7.002466E-2,-1.0157361E-1,-2.1863086E-2,-2.111276E-2,-1.5793128E-2,1.8220298E-2,-1.0037459E-2,-8.207742E-3,2.0066941E-2,9.319695E-2,4.1224468E-3,3.5507672E-3,8.984328E-2,3.91135E-3,3.62951E-2,-9.760187E-3,5.520018E-2,5.3923476E-2,2.6875917E-2,8.22087E-2,-2.505606E-3],"categories":[],"categories_nodes":[],"categories_segments":[],"categories_sizes":[],"default_left":[0,0,0,0,0,0,0,0,0,0,0,0,0,0,0,0,0,0,0,0,0,0,0,0,0,0,0,0,0,0,0,0,0,0,0,0,0,0,0,0,0,0,0,0,0,0,0,0,0],"id":14,"left_children":[1,3,5,7,9,11,13,-1,15,-1,17,19,21,23,25,27,29,31,33,35,37,39,41,43,-1,45,47,-1,-1,-1,-1,-1,-1,-1,-1,-1,-1,-1,-1,-1,-1,-1,-1,-1,-1,-1,-1,-1,-1],"loss_changes":[4.9311713E2,3.547917E1,4.0836823E1,2.2277187E1,4.3186646E0,1.6909203E1,2.7628357E1,0E0,4.285019E0,0E0,3.3025208E0,1.41381645E1,1.2310318E1,1.6043297E1,2.1145142E1,4.0562706E0,2.7214127E0,1.464447E0,2.9473617E0,8.146478E0,7.6385365E0,3.842354E1,1.4537811E1,1.7423193E0,0E0,1.6479431E1,2.806186E1,0E0,0E0,0E0,0E0,0E0,0E0,0E0,0E0,0E0,0E0,0E0,0E0,0E0,0E0,0E0,0E0,0E0,0E0,0E0,0E0,0E0,0E0],"parents":[2147483647,0,0,1,1,2,2,3,3,4,4,5,5,6,6,8,8,10,10,11,11,12,12,13,13,14,14,15,15,16,16,17,17,18,18,19,19,20,20,21,21,22,22,23,23,25,25,26,26],"right_children":[2,4,6,8,10,12,14,-1,16,-1,18,20,22,24,26,28,30,32,34,36,38,40,42,44,-1,46,48,-1,-1,-1,-1,-1,-1,-1,-1,-1,-1,-1,-1,-1,-1,-1,-1,-1,-1,-1,-1,-1,-1],"split_conditions":[7.5938736E1,1E0,3.9809344E2,1E0,1.9966834E0,3E0,1E0,7.009556E-2,1.0277743E-2,-6.87679E-2,4.903462E1,9E0,4E0,1E0,1.1E1,4E0,6E0,2E0,2E0,4E0,2E0,1.4010123E2,5E0,1E0,-1.01409666E-1,1E0,1E0,-1.3882788E-2,-7.002466E-2,-1.0157361E-1,-2.1863086E-2,-2.111276E-2,-1.5793128E-2,1.8220298E-2,-1.0037459E-2,-8.207742E-3,2.0066941E-2,9.319695E-2,4.1224468E-3,3.5507672E-3,8.984328E-2,3.91135E-3,3.62951E-2,-9.760187E-3,5.520018E-2,5.3923476E-2,2.6875917E-2,8.22087E-2,-2.505606E-3],"split_indices":[13,0,13,8,13,8,4,0,12,0,13,4,8,6,10,5,8,4,4,5,8,13,8,5,0,2,6,0,0,0,0,0,0,0,0,0,0,0,0,0,0,0,0,0,0,0,0,0,0],"split_type":[0,0,0,0,0,0,0,0,0,0,0,0,0,0,0,0,0,0,0,0,0,0,0,0,0,0,0,0,0,0,0,0,0,0,0,0,0,0,0,0,0,0,0,0,0,0,0,0,0],"sum_hessian":[1.995E3,1.346E3,6.49E2,3.5E1,1.311E3,3.17E2,3.32E2,2E0,3.3E1,3E0,1.308E3,1.18E2,1.99E2,7E0,3.25E2,1.5E1,1.8E1,1.184E3,1.24E2,1.08E2,1E1,5.2E1,1.47E2,3E0,4E0,2.38E2,8.7E1,6E0,9E0,1.6E1,2E0,1.68E2,1.016E3,9E0,1.15E2,6.9E1,3.9E1,6E0,4E0,2.3E1,2.9E1,5.7E1,9E1,1E0,2E0,1.32E2,1.06E2,7.6E1,1.1E1],"tree_param":{"num_deleted":"0","num_feature":"14","num_nodes":"49","size_leaf_vector":"1"}},{"base_weights":[-1.8986754E-2,-3.5612497E-1,6.9797224E-1,-1.4215318E0,-3.3305755E-1,4.3675268E-1,9.445904E-1,-1.4767369E0,-0E0,-3.4899986E-1,-1.7794982E-1,1.2491565E0,3.6021823E-1,9.034095E-1,1.2203314E-1,-7.613427E-1,-1.6401188E0,-3.8743922E-1,-2.8831512E-1,3.1131202E-1,-2.4840654E-1,1.4851102E0,-1.8870715E-2,2.0079547E-1,5.5932224E-1,4.4588886E-2,9.5175517E-1,-6.802541E-3,-4.8212465E-2,-1.0229718E-1,-5.380508E-2,-2.5979117E-2,-1.8188566E-2,1.2909897E-2,-1.5490246E-2,5.0571254E-3,2.4816936E-2,-1.6285501E-2,-3.883981E-3,2.3365168E-2,8.7554716E-2,1.5449253E-2,-1.868848E-2,4.9198024E-2,4.0155794E-3,5.6878753E-2,2.2842096E-2,-5.7125676E-2,8.418905E-2,5.2033793E-2,1.2422433E-2],"categories":[],"categories_nodes":[],"categories_segments":[],"categories_sizes":[],"default_left":[0,0,0,0,0,0,0,0,0,0,0,0,0,0,0,0,0,0,0,0,0,0,0,0,0,0,0,0,0,0,0,0,0,0,0,0,0,0,0,0,0,0,0,0,0,0,0,0,0,0,0],"id":15,"left_children":[1,3,5,7,9,11,13,15,-1,17,19,21,23,25,-1,27,29,31,33,35,37,39,41,43,45,47,49,-1,-1,-1,-1,-1,-1,-1,-1,-1,-1,-1,-1,-1,-1,-1,-1,-1,-1,-1,-1,-1,-1,-1,-1],"loss_changes":[4.761498E2,3.2283173E1,4.003485E1,2.2992249E0,3.1319427E0,1.8539577E1,1.7360596E1,1.6669884E0,0E0,2.594284E0,4.3800144E0,7.9537354E0,8.794582E0,1.29783325E1,0E0,6.46914E-1,2.2928886E0,1.9870071E0,5.5580673E0,5.1224256E-1,1.3861179E0,4.915722E0,7.037458E-1,1.4817593E1,6.7283096E0,3.7003872E1,1.8311554E1,0E0,0E0,0E0,0E0,0E0,0E0,0E0,0E0,0E0,0E0,0E0,0E0,0E0,0E0,0E0,0E0,0E0,0E0,0E0,0E0,0E0,0E0,0E0,0E0],"parents":[2147483647,0,0,1,1,2,2,3,3,4,4,5,5,6,6,7,7,9,9,10,10,11,11,12,12,13,13,15,15,16,16,17,17,18,18,19,19,20,20,21,21,22,22,23,23,24,24,25,25,26,26],"right_children":[2,4,6,8,10,12,14,16,-1,18,20,22,24,26,-1,28,30,32,34,36,38,40,42,44,46,48,50,-1,-1,-1,-1,-1,-1,-1,-1,-1,-1,-1,-1,-1,-1,-1,-1,-1,-1,-1,-1,-1,-1,-1,-1],"split_conditions":[7.793821E1,2.7686432E1,3.9809344E2,1E1,4.903462E1,1E0,5.9399897E3,4E0,-0E0,1.2E1,1E0,3.326523E2,8E0,2E0,1.2203314E-1,3E0,3E0,2E0,1.8E1,1.1E1,1.1E1,2E0,1.9E1,1E0,1E1,2E0,2.2E1,-6.802541E-3,-4.8212465E-2,-1.0229718E-1,-5.380508E-2,-2.5979117E-2,-1.8188566E-2,1.2909897E-2,-1.5490246E-2,5.0571254E-3,2.4816936E-2,-1.6285501E-2,-3.883981E-3,2.3365168E-2,8.7554716E-2,1.5449253E-2,-1.868848E-2,4.9198024E-2,4.0155794E-3,5.6878753E-2,2.2842096E-2,-5.7125676E-2,8.418905E-2,5.2033793E-2,1.2422433E-2],"split_indices":[13,13,13,1,13,5,13,7,0,7,5,13,7,4,0,10,5,4,7,10,10,10,7,7,7,5,7,0,0,0,0,0,0,0,0,0,0,0,0,0,0,0,0,0,0,0,0,0,0,0,0],"split_type":[0,0,0,0,0,0,0,0,0,0,0,0,0,0,0,0,0,0,0,0,0,0,0,0,0,0,0,0,0,0,0,0,0,0,0,0,0,0,0,0,0,0,0,0,0,0,0,0,0,0,0],"sum_hessian":[1.968E3,1.339E3,6.29E2,2.7E1,1.312E3,3.07E2,3.22E2,2.6E1,1E0,1.188E3,1.24E2,2.5E1,2.82E2,3.15E2,7E0,6E0,2E1,7.23E2,4.65E2,1.5E1,1.09E2,2.1E1,4E0,1.58E2,1.24E2,1.7E1,2.98E2,2E0,4E0,1E1,1E1,1.06E2,6.17E2,1.7E1,4.48E2,8E0,7E0,7.4E1,3.5E1,5E0,1.6E1,2E0,2E0,2E1,1.38E2,1.7E1,1.07E2,1E1,7E0,2.64E2,3.4E1],"tree_param":{"num_deleted":"0","num_feature":"14","num_nodes":"51","size_leaf_vector":"1"}},{"base_weights":[4.1772485E-2,-3.0388176E-1,7.8294295E-1,-1.3861313E0,-2.8407857E-1,3.1734058E-1,9.465555E-1,-1.9385114E-1,-8.049474E-2,-3.084141E-1,-9.247103E-2,8.742108E-2,6.223396E-1,8.632464E-1,1.5407839E0,5.7243328E-3,-3.2455724E-1,-2.9473993E-1,-5.3711617E-1,2.9656628E-1,-1.5786302E-1,1.7202234E-1,-1.4667265E0,8.064742E-1,-4.4625574E-1,9.430986E-1,5.2405894E-1,1.067006E0,2.006434E0,-0E0,-2.1247761E-2,-1.6597152E-2,-1.1645757E-2,-4.6880282E-2,-2.085199E-2,1.7189825E-2,-1.48816975E-2,-1.3470451E-2,2.953923E-3,3.9905995E-2,-2.4891977E-5,-1.1997079E-1,5.4100752E-2,-1.0701134E-2,4.7228806E-2,1.49050085E-2,-4.642367E-2,8.681154E-2,4.3485377E-2,-8.861976E-2,3.181946E-2,7.4364685E-2,9.8377615E-3,6.0039002E-2,1.111687E-1],"categories":[],"categories_nodes":[],"categories_segments":[],"categories_sizes":[],"default_left":[0,0,0,0,0,0,0,0,0,0,0,0,0,0,0,0,0,0,0,0,0,0,0,0,0,0,0,0,0,0,0,0,0,0,0,0,0,0,0,0,0,0,0,0,0,0,0,0,0,0,0,0,0,0,0],"id":16,"left_children":[1,3,5,7,9,11,13,15,-1,17,19,21,23,25,27,-1,29,31,33,35,37,39,41,43,45,47,49,51,53,-1,-1,-1,-1,-1,-1,-1,-1,-1,-1,-1,-1,-1,-1,-1,-1,-1,-1,-1,-1,-1,-1,-1,-1,-1,-1],"loss_changes":[5.090766E2,2.8479576E1,4.7717987E1,5.9104805E0,6.1423416E0,1.1515408E1,2.1548187E1,2.596727E-1,0E0,3.451851E0,3.8998146E0,1.27451935E1,1.4366251E1,1.0518005E1,9.906204E0,0E0,1.2041116E-1,2.435379E0,2.5993195E0,7.243539E-1,3.207013E0,1.0017491E1,1.4613861E1,8.872108E0,4.2881727E0,1.7554718E1,2.1909193E1,1.0511631E1,1.7068176E0,0E0,0E0,0E0,0E0,0E0,0E0,0E0,0E0,0E0,0E0,0E0,0E0,0E0,0E0,0E0,0E0,0E0,0E0,0E0,0E0,0E0,0E0,0E0,0E0,0E0,0E0],"parents":[2147483647,0,0,1,1,2,2,3,3,4,4,5,5,6,6,7,7,9,9,10,10,11,11,12,12,13,13,14,14,16,16,17,17,18,18,19,19,20,20,21,21,22,22,23,23,24,24,25,25,26,26,27,27,28,28],"right_children":[2,4,6,8,10,12,14,16,-1,18,20,22,24,26,28,-1,30,32,34,36,38,40,42,44,46,48,50,52,54,-1,-1,-1,-1,-1,-1,-1,-1,-1,-1,-1,-1,-1,-1,-1,-1,-1,-1,-1,-1,-1,-1,-1,-1,-1,-1],"split_conditions":[8.760343E1,2.7686432E1,1.6696346E2,4E0,4.8387245E1,9E0,1.3890004E3,1E0,-8.049474E-2,1E0,1E0,8E0,2.3E1,1E0,8E0,5.7243328E-3,3E0,1E0,3E0,7.793821E1,1E1,2E0,9E0,5.8729965E-2,6E0,3E0,1E0,1.1E1,6E0,-0E0,-2.1247761E-2,-1.6597152E-2,-1.1645757E-2,-4.6880282E-2,-2.085199E-2,1.7189825E-2,-1.48816975E-2,-1.3470451E-2,2.953923E-3,3.9905995E-2,-2.4891977E-5,-1.1997079E-1,5.4100752E-2,-1.0701134E-2,4.7228806E-2,1.49050085E-2,-4.642367E-2,8.681154E-2,4.3485377E-2,-8.861976E-2,3.181946E-2,7.4364685E-2,9.8377615E-3,6.0039002E-2,1.111687E-1],"split_indices":[13,13,13,7,13,7,13,7,0,6,5,7,7,6,7,0,1,2,4,13,3,7,4,12,4,7,4,1,4,0,0,0,0,0,0,0,0,0,0,0,0,0,0,0,0,0,0,0,0,0,0,0,0,0,0],"split_type":[0,0,0,0,0,0,0,0,0,0,0,0,0,0,0,0,0,0,0,0,0,0,0,0,0,0,0,0,0,0,0,0,0,0,0,0,0,0,0,0,0,0,0,0,0,0,0,0,0,0,0,0,0,0,0],"sum_hessian":[1.985E3,1.354E3,6.31E2,2.3E1,1.331E3,1.65E2,4.66E2,4E0,1.9E1,1.18E3,1.51E2,9.5E1,7E1,4.11E2,5.5E1,1E0,3E0,1.116E3,6.4E1,2.1E1,1.3E2,9.1E1,4E0,6E1,1E1,3.31E2,8E1,2.9E1,2.6E1,1E0,2E0,6.93E2,4.23E2,1.3E1,5.1E1,2E1,1E0,8.6E1,4.4E1,1.9E1,7.2E1,3E0,1E0,7E0,5.3E1,4E0,6E0,2.6E1,3.05E2,3E0,7.7E1,1.9E1,1E1,7E0,1.9E1],"tree_param":{"num_deleted":"0","num_feature":"14","num_nodes":"55","size_leaf_vector":"1"}},{"base_weights":[-2.374757E-2,-3.112794E-1,6.183762E-1,-1.3054323E0,-2.9095617E-1,7.016985E-1,1.9390474E-1,1.2939045E-1,-1.494343E0,-3.6345187E-1,-2.387007E-1,3.3923018E-1,8.440993E-1,-9.699813E-2,3.4852108E-1,9.246923E-1,-5.3912878E-2,-8.748404E-3,-1.539752E0,-5.8971155E-1,-3.4326026E-1,-2.8965735E-1,-1.5536165E-1,1.9155549E-1,1.2043628E0,-5.0178576E-1,8.835954E-1,8.075793E-1,-7.040438E-2,6.1270703E-2,5.581222E-3,-7.945191E-2,-8.886359E-3,-4.857706E-2,-2.2294639E-2,-1.7735187E-2,-6.978154E-5,-1.3865875E-2,-6.0492273E-2,-8.724521E-3,6.393947E-2,-6.982905E-3,3.0492604E-2,9.736314E-2,2.9485583E-2,8.2003884E-2,-9.871451E-2,3.557772E-2,6.806969E-2,9.632161E-2,3.2638673E-2,5.3152867E-2,-1.8761285E-2],"categories":[],"categories_nodes":[],"categories_segments":[],"categories_sizes":[],"default_left":[0,0,0,0,0,0,0,0,0,0,0,0,0,0,0,0,0,0,0,0,0,0,0,0,0,0,0,0,0,0,0,0,0,0,0,0,0,0,0,0,0,0,0,0,0,0,0,0,0,0,0,0,0],"id":17,"left_children":[1,3,5,7,9,11,13,15,17,19,21,23,25,-1,27,29,-1,-1,31,33,35,37,39,41,43,45,47,49,51,-1,-1,-1,-1,-1,-1,-1,-1,-1,-1,-1,-1,-1,-1,-1,-1,-1,-1,-1,-1,-1,-1,-1,-1],"loss_changes":[3.6536194E2,2.707991E1,2.141954E1,7.6482887E0,4.933136E0,2.5970993E1,3.416991E1,4.823478E0,9.96994E-1,2.2580948E0,3.2356415E0,1.8282404E1,1.9937134E1,0E0,1.8592445E1,4.6303153E-1,0E0,0E0,1.0848846E0,1.84128E0,1.9825478E0,5.0115814E0,8.342766E0,1.7588924E1,8.187088E0,3.7964344E1,2.8087524E1,6.4519844E0,1.7950771E1,0E0,0E0,0E0,0E0,0E0,0E0,0E0,0E0,0E0,0E0,0E0,0E0,0E0,0E0,0E0,0E0,0E0,0E0,0E0,0E0,0E0,0E0,0E0,0E0],"parents":[2147483647,0,0,1,1,2,2,3,3,4,4,5,5,6,6,7,7,8,8,9,9,10,10,11,11,12,12,14,14,15,15,18,18,19,19,20,20,21,21,22,22,23,23,24,24,25,25,26,26,27,27,28,28],"right_children":[2,4,6,8,10,12,14,16,18,20,22,24,26,-1,28,30,-1,-1,32,34,36,38,40,42,44,46,48,50,52,-1,-1,-1,-1,-1,-1,-1,-1,-1,-1,-1,-1,-1,-1,-1,-1,-1,-1,-1,-1,-1,-1,-1,-1],"split_conditions":[8.760343E1,2.7686432E1,1E0,1E0,3.9573673E1,1.6696346E2,1E0,1E0,1E0,1E0,1.5E1,9E0,1E0,-9.699813E-2,4.4659242E-2,1.3E1,-5.3912878E-2,-8.748404E-3,1.3786415E1,6E0,1E0,2.1E1,2.1E1,9E0,2E0,1E0,1.1E1,1E0,2E0,6.1270703E-2,5.581222E-3,-7.945191E-2,-8.886359E-3,-4.857706E-2,-2.2294639E-2,-1.7735187E-2,-6.978154E-5,-1.3865875E-2,-6.0492273E-2,-8.724521E-3,6.393947E-2,-6.982905E-3,3.0492604E-2,9.736314E-2,2.9485583E-2,8.2003884E-2,-9.871451E-2,3.557772E-2,6.806969E-2,9.632161E-2,3.2638673E-2,5.3152867E-2,-1.8761285E-2],"split_indices":[13,13,6,8,13,13,4,6,3,7,7,4,3,0,12,3,0,0,13,4,2,3,3,7,5,5,10,5,10,0,0,0,0,0,0,0,0,0,0,0,0,0,0,0,0,0,0,0,0,0,0,0,0],"split_type":[0,0,0,0,0,0,0,0,0,0,0,0,0,0,0,0,0,0,0,0,0,0,0,0,0,0,0,0,0,0,0,0,0,0,0,0,0,0,0,0,0,0,0,0,0,0,0,0,0,0,0,0,0],"sum_hessian":[1.977E3,1.366E3,6.11E2,2.6E1,1.34E3,5.1E2,1.01E2,3E0,2.3E1,5.58E2,7.82E2,1.45E2,3.65E2,6E0,9.5E1,2E0,1E0,1E0,2.2E1,4.3E1,5.15E2,4.83E2,2.99E2,1.25E2,2E1,1E1,3.55E2,4.5E1,5E1,1E0,1E0,2.1E1,1E0,1E1,3.3E1,4.98E2,1.7E1,4.78E2,5E0,2.96E2,3E0,7E1,5.5E1,8E0,1.2E1,4E0,6E0,2.63E2,9.2E1,4E0,4.1E1,1E1,4E1],"tree_param":{"num_deleted":"0","num_feature":"14","num_nodes":"53","size_leaf_vector":"1"}},{"base_weights":[-5.633178E-3,-2.726699E-1,5.9114474E-1,-1.0986001E0,-2.583754E-1,4.3521425E-1,9.406004E-1,5.9738934E-2,-1.2616982E0,-2.7298674E-1,-8.269095E-2,-3.8319677E-2,5.599424E-1,1.6439865E0,8.0744016E-1,-6.5219474E-1,-6.9835864E-2,1.1903593E-1,-2.785694E-1,-7.364592E-1,3.2067105E-2,-4.8346835E-1,6.096897E-1,4.291856E-1,9.632999E-1,1.7435957E0,-2.6126847E-2,1.4948127E-1,1.0017546E0,-0E0,-3.969257E-2,3.108412E-2,-3.0920187E-3,-7.9139136E-2,-1.3701014E-2,9.4359554E-4,-4.2642724E-2,-3.8382534E-3,4.656421E-2,-3.8762458E-2,1.9921152E-2,-8.217051E-3,5.1998533E-2,3.921295E-3,2.627713E-2,-2.8782368E-2,5.2544124E-2,3.6642235E-2,9.6355684E-2,8.761317E-2,-1.7553795E-3,4.4491004E-2,1.2505393E-1],"categories":[],"categories_nodes":[],"categories_segments":[],"categories_sizes":[],"default_left":[0,0,0,0,0,0,0,0,0,0,0,0,0,0,0,0,0,0,0,0,0,0,0,0,0,0,0,0,0,0,0,0,0,0,0,0,0,0,0,0,0,0,0,0,0,0,0,0,0,0,0,0,0],"id":18,"left_children":[1,3,5,7,9,11,13,-1,15,17,19,21,23,25,27,29,-1,31,33,35,37,39,41,43,45,47,-1,49,51,-1,-1,-1,-1,-1,-1,-1,-1,-1,-1,-1,-1,-1,-1,-1,-1,-1,-1,-1,-1,-1,-1,-1,-1],"loss_changes":[3.1757773E2,1.58377E1,3.301941E1,1.0117189E1,3.4201202E0,2.5352585E1,1.612976E1,0E0,6.946564E-1,2.7847748E0,8.046724E0,2.624359E1,1.7326767E1,7.291565E0,2.0319138E1,5.9885216E-1,0E0,1.7309322E0,6.6960297E0,1.5061646E0,9.062542E0,1.4241782E1,1.2581346E1,8.618309E0,1.1704819E1,3.5154724E0,0E0,1.1475751E1,1.8245842E1,0E0,0E0,0E0,0E0,0E0,0E0,0E0,0E0,0E0,0E0,0E0,0E0,0E0,0E0,0E0,0E0,0E0,0E0,0E0,0E0,0E0,0E0,0E0,0E0],"parents":[2147483647,0,0,1,1,2,2,3,3,4,4,5,5,6,6,8,8,9,9,10,10,11,11,12,12,13,13,14,14,15,15,17,17,18,18,19,19,20,20,21,21,22,22,23,23,24,24,25,25,27,27,28,28],"right_children":[2,4,6,8,10,12,14,-1,16,18,20,22,24,26,28,30,-1,32,34,36,38,40,42,44,46,48,-1,50,52,-1,-1,-1,-1,-1,-1,-1,-1,-1,-1,-1,-1,-1,-1,-1,-1,-1,-1,-1,-1,-1,-1,-1,-1],"split_conditions":[8.760343E1,1.3786415E1,6.4444293E2,1E0,4.981185E1,1E0,5E0,5.9738934E-2,4E0,1.0277743E-2,2E0,1.9E1,3.6294766E2,2E1,9E0,2.6778333E0,-6.9835864E-2,1E0,1E0,4.4659242E-2,1.9E1,6E0,3E0,2E0,1E0,4.4659242E-2,-2.6126847E-2,3.474856E-2,3.986775E3,-0E0,-3.969257E-2,3.108412E-2,-3.0920187E-3,-7.9139136E-2,-1.3701014E-2,9.4359554E-4,-4.2642724E-2,-3.8382534E-3,4.656421E-2,-3.8762458E-2,1.9921152E-2,-8.217051E-3,5.1998533E-2,3.921295E-3,2.627713E-2,-2.8782368E-2,5.2544124E-2,3.6642235E-2,9.6355684E-2,8.761317E-2,-1.7553795E-3,4.4491004E-2,1.2505393E-1],"split_indices":[13,13,13,8,13,0,7,0,7,12,7,7,13,3,7,13,0,8,0,12,3,8,8,8,3,12,0,12,13,0,0,0,0,0,0,0,0,0,0,0,0,0,0,0,0,0,0,0,0,0,0,0,0],"split_type":[0,0,0,0,0,0,0,0,0,0,0,0,0,0,0,0,0,0,0,0,0,0,0,0,0,0,0,0,0,0,0,0,0,0,0,0,0,0,0,0,0,0,0,0,0,0,0,0,0,0,0,0,0],"sum_hessian":[1.991E3,1.376E3,6.15E2,2.2E1,1.354E3,4.27E2,1.88E2,1E0,2.1E1,1.249E3,1.05E2,8.9E1,3.38E2,2.8E1,1.6E2,5E0,1.6E1,1.7E1,1.232E3,1.5E1,9E1,5.3E1,3.6E1,2.57E2,8.1E1,2.7E1,1E0,3.7E1,1.23E2,1E0,4E0,4E0,1.3E1,3E0,1.229E3,2E0,1.3E1,8.1E1,9E0,4E1,1.3E1,1.3E1,2.3E1,5.6E1,2.01E2,4E0,7.7E1,5E0,2.2E1,3E0,3.4E1,1.16E2,7E0],"tree_param":{"num_deleted":"0","num_feature":"14","num_nodes":"53","size_leaf_vector":"1"}},{"base_weights":[-2.498752E-2,-2.703719E-1,5.4940224E-1,-1.2006863E0,-2.514352E-1,-7.321919E-1,5.868368E-1,9.9711396E-2,-1.3715574E0,-2.9807392E-1,-2.0846567E-1,6.087602E-1,-1.7417345E0,5.357569E-1,1.1417102E0,8.6258215E-1,-5.2222528E-2,-1.4434451E0,-3.5386074E-1,-2.5423637E-1,-3.5792843E-1,-2.3935018E-1,4.1268812E-3,-3.142599E-2,1.496832E0,-1.2176869E-2,-9.35015E-2,6.0241693E-1,3.6824916E-2,6.508854E-1,1.580797E0,5.8245458E-2,3.9482093E-3,-7.942497E-2,-3.0628055E-2,-0E0,-2.7941767E-2,-1.7298393E-2,-9.3790125E-3,-2.9653877E-2,-1.6268784E-2,-1.5214555E-2,-6.5803896E-3,-2.6748916E-3,6.407164E-2,1.5693473E-2,1.07375875E-1,9.409572E-3,3.580239E-2,6.2156618E-2,-1.8198071E-2,7.64439E-2,-1.730902E-2,5.0001778E-2,1.21325314E-1],"categories":[],"categories_nodes":[],"categories_segments":[],"categories_sizes":[],"default_left":[0,0,0,0,0,0,0,0,0,0,0,0,0,0,0,0,0,0,0,0,0,0,0,0,0,0,0,0,0,0,0,0,0,0,0,0,0,0,0,0,0,0,0,0,0,0,0,0,0,0,0,0,0,0,0],"id":19,"left_children":[1,3,5,7,9,11,13,15,17,19,21,23,25,27,29,31,-1,33,35,37,39,41,43,-1,45,-1,-1,47,49,51,53,-1,-1,-1,-1,-1,-1,-1,-1,-1,-1,-1,-1,-1,-1,-1,-1,-1,-1,-1,-1,-1,-1,-1,-1],"loss_changes":[2.7595255E2,2.3723595E1,2.8529022E1,6.2633514E0,2.5846481E0,2.4187317E1,1.5376038E1,4.374128E0,1.0653267E0,1.5323143E0,4.653414E0,9.817969E0,1.2553387E0,1.7341507E1,8.877106E0,4.9435282E-1,0E0,1.458355E0,2.4894157E-1,2.174673E0,1.7666512E0,4.226448E0,6.815742E0,0E0,2.928502E0,0E0,0E0,2.15206E1,3.0999077E1,2.165753E1,9.018475E0,0E0,0E0,0E0,0E0,0E0,0E0,0E0,0E0,0E0,0E0,0E0,0E0,0E0,0E0,0E0,0E0,0E0,0E0,0E0,0E0,0E0,0E0,0E0,0E0],"parents":[2147483647,0,0,1,1,2,2,3,3,4,4,5,5,6,6,7,7,8,8,9,9,10,10,11,11,12,12,13,13,14,14,15,15,17,17,18,18,19,19,20,20,21,21,22,22,24,24,27,27,28,28,29,29,30,30],"right_children":[2,4,6,8,10,12,14,16,18,20,22,24,26,28,30,32,-1,34,36,38,40,42,44,-1,46,-1,-1,48,50,52,54,-1,-1,-1,-1,-1,-1,-1,-1,-1,-1,-1,-1,-1,-1,-1,-1,-1,-1,-1,-1,-1,-1,-1,-1],"split_conditions":[8.760343E1,2.7686432E1,1E0,1E0,4.438575E1,1E0,1.3890004E3,8E0,6E0,3E0,9E0,2E0,1E0,2.2E1,8E0,3E0,-5.2222528E-2,8E0,1.3E1,4E0,1E0,1.1E1,1.7E1,-3.142599E-2,1.1E1,-1.2176869E-2,-9.35015E-2,5E0,5E0,5E0,3.986775E3,5.8245458E-2,3.9482093E-3,-7.942497E-2,-3.0628055E-2,-0E0,-2.7941767E-2,-1.7298393E-2,-9.3790125E-3,-2.9653877E-2,-1.6268784E-2,-1.5214555E-2,-6.5803896E-3,-2.6748916E-3,6.407164E-2,1.5693473E-2,1.07375875E-1,9.409572E-3,3.580239E-2,6.2156618E-2,-1.8198071E-2,7.64439E-2,-1.730902E-2,5.0001778E-2,1.21325314E-1],"split_indices":[13,13,4,8,13,2,13,1,8,5,4,8,5,7,7,1,0,1,3,7,8,7,3,0,3,0,0,7,4,7,13,0,0,0,0,0,0,0,0,0,0,0,0,0,0,0,0,0,0,0,0,0,0,0,0],"split_type":[0,0,0,0,0,0,0,0,0,0,0,0,0,0,0,0,0,0,0,0,0,0,0,0,0,0,0,0,0,0,0,0,0,0,0,0,0,0,0,0,0,0,0,0,0,0,0,0,0,0,0,0,0,0,0],"sum_hessian":[1.956E3,1.371E3,5.85E2,2.6E1,1.345E3,1.6E1,5.69E2,3E0,2.3E1,6.41E2,7.04E2,7E0,9E0,5.23E2,4.6E1,2E0,1E0,2.1E1,2E0,3.74E2,2.67E2,6.15E2,8.9E1,3E0,4E0,1E0,8E0,4.61E2,6.2E1,2.3E1,2.3E1,1E0,1E0,1.7E1,4E0,1E0,1E0,1.55E2,2.19E2,3E1,2.37E2,3.82E2,2.33E2,8.6E1,3E0,2E0,2E0,1E2,3.61E2,1.5E1,4.7E1,1.2E1,1.1E1,1.5E1,8E0],"tree_param":{"num_deleted":"0","num_feature":"14","num_nodes":"55","size_leaf_vector":"1"}},{"base_weights":[1.0586912E-2,-2.5567207E-1,5.920681E-1,-1.2843682E0,-2.3621257E-1,2.6818073E-1,7.256435E-1,-1.3783975E0,-4.4462267E-1,-2.4939117E-1,-1.1308999E-1,1.5993394E-1,1.0599219E0,8.188845E-1,2.7951038E-1,-7.1824335E-2,-5.176996E-1,3.8495043E-3,-3.3874515E-2,-2.6289934E-1,-1.747351E-1,-6.9200866E-2,-4.8494846E-1,3.6015916E-1,-6.8158664E-2,1.4231682E0,1.1583368E-1,1.9966364E0,7.6723045E-1,-8.17372E-2,4.4102487E-1,5.735401E-3,-4.706287E-2,-1.4304781E-2,-1.1604029E-2,1.0148617E-1,-9.934043E-3,-5.9116166E-3,1.7658597E-2,3.935901E-3,-5.861729E-2,5.203221E-2,7.1849893E-3,2.8198098E-3,-2.8425042E-2,4.5002483E-2,9.3907684E-2,-2.0207781E-2,4.8860233E-2,5.4460417E-2,1.1843144E-1,1.6960807E-2,4.3298095E-2,3.6080386E-2,-9.97054E-3],"categories":[],"categories_nodes":[],"categories_segments":[],"categories_sizes":[],"default_left":[0,0,0,0,0,0,0,0,0,0,0,0,0,0,0,0,0,0,0,0,0,0,0,0,0,0,0,0,0,0,0,0,0,0,0,0,0,0,0,0,0,0,0,0,0,0,0,0,0,0,0,0,0,0,0],"id":20,"left_children":[1,3,5,7,9,11,13,15,17,19,21,23,25,27,29,-1,31,-1,-1,33,35,37,39,41,43,45,47,49,51,-1,53,-1,-1,-1,-1,-1,-1,-1,-1,-1,-1,-1,-1,-1,-1,-1,-1,-1,-1,-1,-1,-1,-1,-1,-1],"loss_changes":[2.9574515E2,2.576802E1,2.5664047E1,1.099884E0,2.0238113E0,1.4878003E1,1.7298767E1,1.1085892E-1,5.980768E-1,1.0811234E0,1.9837353E0,7.2239213E0,6.8829155E0,1.9484222E1,2.379008E1,0E0,9.9420816E-1,0E0,0E0,5.823746E-1,9.827473E0,2.3998613E0,5.2386637E0,1.2105003E1,4.6949553E0,1.6019192E0,3.587573E0,1.8000717E0,1.3826843E1,0E0,1.2774786E1,0E0,0E0,0E0,0E0,0E0,0E0,0E0,0E0,0E0,0E0,0E0,0E0,0E0,0E0,0E0,0E0,0E0,0E0,0E0,0E0,0E0,0E0,0E0,0E0],"parents":[2147483647,0,0,1,1,2,2,3,3,4,4,5,5,6,6,7,7,8,8,9,9,10,10,11,11,12,12,13,13,14,14,16,16,19,19,20,20,21,21,22,22,23,23,24,24,25,25,26,26,27,27,28,28,30,30],"right_children":[2,4,6,8,10,12,14,16,18,20,22,24,26,28,30,-1,32,-1,-1,34,36,38,40,42,44,46,48,50,52,-1,54,-1,-1,-1,-1,-1,-1,-1,-1,-1,-1,-1,-1,-1,-1,-1,-1,-1,-1,-1,-1,-1,-1,-1,-1],"split_conditions":[7.5938736E1,2.7686432E1,1.6696346E2,2E1,4.8387245E1,9E0,1E0,1E1,1E0,9E0,6E0,4E0,8.934102E1,2.1897665E2,1E0,-7.1824335E-2,4E0,3.8495043E-3,-3.3874515E-2,4E0,2.1289611E-2,6.978587E1,4.981185E1,1E1,1.1329927E2,5E0,6E0,3E0,3.9809344E2,-8.17372E-2,5E0,5.735401E-3,-4.706287E-2,-1.4304781E-2,-1.1604029E-2,1.0148617E-1,-9.934043E-3,-5.9116166E-3,1.7658597E-2,3.935901E-3,-5.861729E-2,5.203221E-2,7.1849893E-3,2.8198098E-3,-2.8425042E-2,4.5002483E-2,9.3907684E-2,-2.0207781E-2,4.8860233E-2,5.4460417E-2,1.1843144E-1,1.6960807E-2,4.3298095E-2,3.6080386E-2,-9.97054E-3],"split_indices":[13,13,13,3,13,4,6,1,8,4,8,8,13,13,4,0,8,0,0,8,11,13,13,3,13,8,8,8,13,0,8,0,0,0,0,0,0,0,0,0,0,0,0,0,0,0,0,0,0,0,0,0,0,0,0],"split_type":[0,0,0,0,0,0,0,0,0,0,0,0,0,0,0,0,0,0,0,0,0,0,0,0,0,0,0,0,0,0,0,0,0,0,0,0,0,0,0,0,0,0,0,0,0,0,0,0,0,0,0,0,0,0,0],"sum_hessian":[1.908E3,1.309E3,5.99E2,2.3E1,1.286E3,1.76E2,4.23E2,2E1,3E0,1.16E3,1.26E2,1.56E2,2E1,3.49E2,7.4E1,1.8E1,2E0,1E0,2E0,9.79E2,1.81E2,1.14E2,1.2E1,8.3E1,7.3E1,1.4E1,6E0,1.3E1,3.36E2,5E0,6.9E1,1E0,1E0,5.52E2,4.27E2,1E0,1.8E2,1.03E2,1.1E1,7E0,5E0,1.9E1,6.4E1,5.9E1,1.4E1,8E0,6E0,4E0,2E0,5E0,8E0,6.4E1,2.72E2,4.8E1,2.1E1],"tree_param":{"num_deleted":"0","num_feature":"14","num_nodes":"55","size_leaf_vector":"1"}},{"base_weights":[4.0216832E-3,-1.9222762E-1,6.6426814E-1,-2.425649E-1,1.8242665E-1,7.480927E-1,2.6412E-1,-9.8631454E-1,-2.2328813E-1,-7.227149E-4,4.5346212E-1,7.055176E-1,1.6963252E0,-8.162342E-2,4.156796E-1,1.101099E0,-1.2350925E0,-9.4557667E-1,-2.1966681E-1,-1.522882E-1,7.040168E-1,1.09188214E-1,3.4513357E-1,7.3627514E-1,-5.4421866E-1,4.794554E-1,2.0861454E0,-5.982462E-1,5.3203374E-1,6.923776E-2,3.7532665E-3,-6.742459E-2,-2.7004017E-2,-5.343045E-2,-5.7603694E-3,-1.3337411E-2,-8.805162E-3,-2.385363E-3,-1.1688532E-1,-1.2788454E-4,6.1360627E-2,2.4665942E-2,-2.359817E-2,-5.467956E-3,3.8233362E-2,8.257626E-2,-7.1089596E-2,9.367585E-2,-5.2054565E-2,1.1670881E-1,-7.3540187E-3,-5.360905E-2,5.936693E-3,3.8765915E-2,1.2742608E-2],"categories":[],"categories_nodes":[],"categories_segments":[],"categories_sizes":[],"default_left":[0,0,0,0,0,0,0,0,0,0,0,0,0,0,0,0,0,0,0,0,0,0,0,0,0,0,0,0,0,0,0,0,0,0,0,0,0,0,0,0,0,0,0,0,0,0,0,0,0,0,0,0,0,0,0],"id":21,"left_children":[1,3,5,7,9,11,13,15,17,19,21,23,25,-1,27,29,31,33,35,37,39,-1,41,43,45,47,49,51,53,-1,-1,-1,-1,-1,-1,-1,-1,-1,-1,-1,-1,-1,-1,-1,-1,-1,-1,-1,-1,-1,-1,-1,-1,-1,-1],"loss_changes":[2.5219418E2,2.8338879E1,1.4661041E1,1.8626778E1,8.881517E0,1.3419571E1,2.3265152E1,1.8510338E1,3.0525513E0,1.1481158E1,1.24891815E1,1.4027252E1,5.858635E0,0E0,9.041777E0,9.142332E-1,1.4472656E0,3.7148046E-1,2.5463753E0,1.9991158E1,7.1494646E0,0E0,8.589605E0,8.456345E0,1.9667486E1,1.2632424E1,6.655018E0,2.9410634E0,4.2174683E0,0E0,0E0,0E0,0E0,0E0,0E0,0E0,0E0,0E0,0E0,0E0,0E0,0E0,0E0,0E0,0E0,0E0,0E0,0E0,0E0,0E0,0E0,0E0,0E0,0E0,0E0],"parents":[2147483647,0,0,1,1,2,2,3,3,4,4,5,5,6,6,7,7,8,8,9,9,10,10,11,11,12,12,14,14,15,15,16,16,17,17,18,18,19,19,20,20,22,22,23,23,24,24,25,25,26,26,27,27,28,28],"right_children":[2,4,6,8,10,12,14,16,18,20,22,24,26,-1,28,30,32,34,36,38,40,-1,42,44,46,48,50,52,54,-1,-1,-1,-1,-1,-1,-1,-1,-1,-1,-1,-1,-1,-1,-1,-1,-1,-1,-1,-1,-1,-1,-1,-1,-1,-1],"split_conditions":[1.4260774E2,7.5938736E1,1E0,1E0,9E0,3.0986333E3,1E0,1E0,2.7686432E1,9E0,1E1,2.822071E3,6E0,-8.162342E-2,3E0,6E0,6E0,2.2E1,4.438575E1,8E0,4E0,1.09188214E-1,2.3E1,1E0,3E0,5E0,6E0,8E0,4E0,6.923776E-2,3.7532665E-3,-6.742459E-2,-2.7004017E-2,-5.343045E-2,-5.7603694E-3,-1.3337411E-2,-8.805162E-3,-2.385363E-3,-1.1688532E-1,-1.2788454E-4,6.1360627E-2,2.4665942E-2,-2.359817E-2,-5.467956E-3,3.8233362E-2,8.257626E-2,-7.1089596E-2,9.367585E-2,-5.2054565E-2,1.1670881E-1,-7.3540187E-3,-5.360905E-2,5.936693E-3,3.8765915E-2,1.2742608E-2],"split_indices":[13,13,6,0,7,13,4,8,13,4,7,13,7,0,7,1,8,7,13,7,7,0,7,3,8,1,8,4,8,0,0,0,0,0,0,0,0,0,0,0,0,0,0,0,0,0,0,0,0,0,0,0,0,0,0],"split_type":[0,0,0,0,0,0,0,0,0,0,0,0,0,0,0,0,0,0,0,0,0,0,0,0,0,0,0,0,0,0,0,0,0,0,0,0,0,0,0,0,0,0,0,0,0,0,0,0,0,0,0,0,0,0,0],"sum_hessian":[1.944E3,1.499E3,4.45E2,1.322E3,1.77E2,3.67E2,7.8E1,3.2E1,1.29E3,1.06E2,7.1E1,3.53E2,1.4E1,5E0,7.3E1,3E0,2.9E1,5E0,1.285E3,8.8E1,1.8E1,3E0,6.8E1,3.45E2,8E0,4E0,1E1,7E0,6.6E1,2E0,1E0,2.4E1,5E0,4E0,1E0,6.14E2,6.71E2,8.5E1,3E0,8E0,1E1,5.8E1,1E1,1.1E1,3.34E2,2E0,6E0,2E0,2E0,9E0,1E0,4E0,3E0,3.4E1,3.2E1],"tree_param":{"num_deleted":"0","num_feature":"14","num_nodes":"55","size_leaf_vector":"1"}},{"base_weights":[2.0504275E-2,-1.9812962E-1,6.673461E-1,-1.1041523E0,-1.8229201E-1,1.057983E0,5.3612924E-1,1.272783E-1,-1.2824055E0,-2.1528862E-1,1.9087555E-1,1.2161747E0,4.1110018E-1,-1.6487136E-1,5.8911175E-1,8.401789E-1,-4.778559E-2,-1.3900708E0,-4.2539415E-1,-3.878861E-1,-1.9164443E-1,-1.343246E-1,8.073325E-1,-8.493682E-1,1.2685505E0,-8.894651E-1,7.6787597E-1,-1.9549847E0,1.3618383E-1,6.909807E-1,1.862134E-1,5.6853987E-2,3.659437E-3,-3.2636125E-2,-7.6825775E-2,-0E0,-4.4200685E-2,-9.090128E-3,-2.5014384E-2,-1.0077456E-2,1.4359297E-2,4.22775E-2,-1.2212478E-2,4.947949E-2,-2.7838657E-3,-7.681598E-2,1.0613356E-2,5.454243E-2,9.465802E-2,-2.837537E-3,-6.333173E-2,1.113257E-1,2.4594352E-2,-1.1186894E-1,-2.5195047E-2,-4.017002E-2,1.567146E-2,2.4221875E-2,5.2639157E-2,-3.9794367E-2,3.8039483E-2],"categories":[],"categories_nodes":[],"categories_segments":[],"categories_sizes":[],"default_left":[0,0,0,0,0,0,0,0,0,0,0,0,0,0,0,0,0,0,0,0,0,0,0,0,0,0,0,0,0,0,0,0,0,0,0,0,0,0,0,0,0,0,0,0,0,0,0,0,0,0,0,0,0,0,0,0,0,0,0,0,0],"id":22,"left_children":[1,3,5,7,9,11,13,15,17,19,21,23,25,27,29,31,-1,33,35,37,39,41,43,45,47,49,51,53,55,57,59,-1,-1,-1,-1,-1,-1,-1,-1,-1,-1,-1,-1,-1,-1,-1,-1,-1,-1,-1,-1,-1,-1,-1,-1,-1,-1,-1,-1,-1,-1],"loss_changes":[2.787796E2,2.0806496E1,2.4799942E1,5.7663956E0,1.7885456E1,1.2026398E1,1.4067337E1,3.8796728E0,1.2570724E0,5.3035088E0,2.383143E1,1.1829651E1,1.2735105E1,1.4999035E1,1.4107552E1,4.7891164E-1,0E0,8.29792E-1,8.391198E-1,3.5239334E0,5.6172028E0,8.547983E0,6.597372E0,2.6463902E0,8.402908E0,1.6802258E0,7.086892E0,2.37566E-1,4.1996994E0,2.0110611E1,4.123099E1,0E0,0E0,0E0,0E0,0E0,0E0,0E0,0E0,0E0,0E0,0E0,0E0,0E0,0E0,0E0,0E0,0E0,0E0,0E0,0E0,0E0,0E0,0E0,0E0,0E0,0E0,0E0,0E0,0E0,0E0],"parents":[2147483647,0,0,1,1,2,2,3,3,4,4,5,5,6,6,7,7,8,8,9,9,10,10,11,11,12,12,13,13,14,14,15,15,17,17,18,18,19,19,20,20,21,21,22,22,23,23,24,24,25,25,26,26,27,27,28,28,29,29,30,30],"right_children":[2,4,6,8,10,12,14,16,18,20,22,24,26,28,30,32,-1,34,36,38,40,42,44,46,48,50,52,54,56,58,60,-1,-1,-1,-1,-1,-1,-1,-1,-1,-1,-1,-1,-1,-1,-1,-1,-1,-1,-1,-1,-1,-1,-1,-1,-1,-1,-1,-1,-1,-1],"split_conditions":[1.1329927E2,2.7686432E1,3E0,1E0,8.760343E1,8E0,1.4260774E2,1E0,1.1090042E1,2E0,5E0,1E0,2E0,4E0,1E0,3E0,-4.778559E-2,4E0,5E0,3E0,2.1E1,3E0,2E1,5E0,8.1348346E2,1E0,2.1897665E2,1E0,3.646152E-2,1.1E1,5E0,5.6853987E-2,3.659437E-3,-3.2636125E-2,-7.6825775E-2,-0E0,-4.4200685E-2,-9.090128E-3,-2.5014384E-2,-1.0077456E-2,1.4359297E-2,4.22775E-2,-1.2212478E-2,4.947949E-2,-2.7838657E-3,-7.681598E-2,1.0613356E-2,5.454243E-2,9.465802E-2,-2.837537E-3,-6.333173E-2,1.113257E-1,2.4594352E-2,-1.1186894E-1,-2.5195047E-2,-4.017002E-2,1.567146E-2,2.4221875E-2,5.2639157E-2,-3.9794367E-2,3.8039483E-2],"split_indices":[13,13,10,8,13,1,13,0,13,7,8,3,8,7,6,1,0,7,8,10,3,3,7,7,13,2,13,6,11,10,1,0,0,0,0,0,0,0,0,0,0,0,0,0,0,0,0,0,0,0,0,0,0,0,0,0,0,0,0,0,0],"split_type":[0,0,0,0,0,0,0,0,0,0,0,0,0,0,0,0,0,0,0,0,0,0,0,0,0,0,0,0,0,0,0,0,0,0,0,0,0,0,0,0,0,0,0,0,0,0,0,0,0,0,0,0,0,0,0,0,0,0,0,0,0],"sum_hessian":[1.969E3,1.472E3,4.97E2,2.4E1,1.448E3,1.23E2,3.74E2,3E0,2.1E1,1.331E3,1.17E2,9.8E1,2.5E1,2.6E1,3.48E2,2E0,1E0,1.8E1,3E0,1.58E2,1.173E3,7.7E1,4E1,2E0,9.6E1,5E0,2E1,3E0,2.3E1,2.77E2,7.1E1,1E0,1E0,4E0,1.4E1,2E0,1E0,5.7E1,1.01E2,1.15E3,2.3E1,7E0,7E1,3.3E1,7E0,1E0,1E0,7.7E1,1.9E1,2E0,3E0,2E0,1.8E1,2E0,1E0,3E0,2E1,1.78E2,9.9E1,2.6E1,4.5E1],"tree_param":{"num_deleted":"0","num_feature":"14","num_nodes":"61","size_leaf_vector":"1"}},{"base_weights":[2.4923058E-2,3.796534E-1,-2.1170191E-1,-1.2252675E-2,4.9911687E-1,-7.115034E-2,-2.093609E-1,-5.213576E-1,4.0525192E-1,2.8334162E-1,6.149145E-1,-3.223313E-1,-1.9306199E-1,-3.4799916E-1,-1.1680435E0,7.0777965E-1,-2.087815E-1,-4.9348706E-1,3.9572558E-1,8.36536E-1,3.83798E-1,-2.1600889E-1,-5.5920756E-1,-2.6255396E-1,-1.4974272E-1,-6.3781776E-2,-1.17102405E-2,2.4746167E-2,-7.8344405E-2,5.251181E-2,2.5949543E-2,5.4586668E-2,-2.6501259E-2,-5.2005347E-2,3.2412817E-4,-6.9005797E-3,2.6996473E-2,4.957431E-2,-2.7868159E-3,7.364985E-2,1.544565E-2,-4.792792E-2,-9.140744E-3,-1.2973808E-2,-3.6730673E-2,-8.137272E-3,-1.5506546E-2,-1.6703227E-3,-1.0017691E-2],"categories":[],"categories_nodes":[],"categories_segments":[],"categories_sizes":[],"default_left":[0,0,0,0,0,0,0,0,0,0,0,0,0,0,0,0,0,0,0,0,0,0,0,0,0,0,0,0,0,0,0,0,0,0,0,0,0,0,0,0,0,0,0,0,0,0,0,0,0],"id":23,"left_children":[1,3,5,7,9,-1,11,13,15,17,19,21,23,25,27,29,31,33,35,37,39,41,43,45,47,-1,-1,-1,-1,-1,-1,-1,-1,-1,-1,-1,-1,-1,-1,-1,-1,-1,-1,-1,-1,-1,-1,-1,-1],"loss_changes":[1.636085E2,3.657318E1,2.8537636E0,3.912021E1,1.4677734E1,0E0,2.0368576E0,8.746922E0,1.8959648E1,1.860646E1,1.943042E1,3.4535475E0,3.0020409E0,6.622761E0,1.2158197E1,3.6943436E0,1.4727068E1,7.4890237E0,1.4353594E1,2.7385605E1,1.5027201E1,2.2247396E0,2.0232592E0,1.7589378E0,3.7028656E0,0E0,0E0,0E0,0E0,0E0,0E0,0E0,0E0,0E0,0E0,0E0,0E0,0E0,0E0,0E0,0E0,0E0,0E0,0E0,0E0,0E0,0E0,0E0,0E0],"parents":[2147483647,0,0,1,1,2,2,3,3,4,4,6,6,7,7,8,8,9,9,10,10,11,11,12,12,13,13,14,14,15,15,16,16,17,17,18,18,19,19,20,20,21,21,22,22,23,23,24,24],"right_children":[2,4,6,8,10,-1,12,14,16,18,20,22,24,26,28,30,32,34,36,38,40,42,44,46,48,-1,-1,-1,-1,-1,-1,-1,-1,-1,-1,-1,-1,-1,-1,-1,-1,-1,-1,-1,-1,-1,-1,-1,-1],"split_conditions":[5.9904563E-1,1E0,1E0,1.9E1,5.6038175E-2,-7.115034E-2,2E0,1.4E1,5.6038175E-2,4E0,7.806191E-2,5E0,3E0,1E0,1.1623639E-2,2E0,2E0,4E0,3E0,2.2E1,1E0,9.421265E-3,5.6038175E-2,6E0,4.63722E-2,-6.3781776E-2,-1.17102405E-2,2.4746167E-2,-7.8344405E-2,5.251181E-2,2.5949543E-2,5.4586668E-2,-2.6501259E-2,-5.2005347E-2,3.2412817E-4,-6.9005797E-3,2.6996473E-2,4.957431E-2,-2.7868159E-3,7.364985E-2,1.544565E-2,-4.792792E-2,-9.140744E-3,-1.2973808E-2,-3.6730673E-2,-8.137272E-3,-1.5506546E-2,-1.6703227E-3,-1.0017691E-2],"split_indices":[12,0,0,7,12,0,7,3,11,7,12,8,10,4,11,8,10,10,10,7,7,11,11,7,11,0,0,0,0,0,0,0,0,0,0,0,0,0,0,0,0,0,0,0,0,0,0,0,0],"split_type":[0,0,0,0,0,0,0,0,0,0,0,0,0,0,0,0,0,0,0,0,0,0,0,0,0,0,0,0,0,0,0,0,0,0,0,0,0,0,0,0,0,0,0,0,0,0,0,0,0],"sum_hessian":[1.947E3,7.79E2,1.168E3,1.82E2,5.97E2,1E0,1.167E3,8.2E1,1E2,2.1E2,3.87E2,1.44E2,1.023E3,6.6E1,1.6E1,6.7E1,3.3E1,2.6E1,1.84E2,1.96E2,1.91E2,1.01E2,4.3E1,3.9E2,6.33E2,6E0,6E1,3E0,1.3E1,2.2E1,4.5E1,6E0,2.7E1,1.2E1,1.4E1,3.9E1,1.45E2,1.67E2,2.9E1,1.1E1,1.8E2,3E0,9.8E1,1.7E1,2.6E1,1.28E2,2.62E2,1.93E2,4.4E2],"tree_param":{"num_deleted":"0","num_feature":"14","num_nodes":"49","size_leaf_vector":"1"}},{"base_weights":[-2.03446E-3,-2.229437E-1,4.534591E-1,-1.0328554E0,-2.0576833E-1,2.8528276E-1,6.1577475E-1,-1.9906259E-3,-5.3283602E-2,-1.7898057E-1,-2.9575202E-1,1.7933372E-1,4.8961934E-1,9.674317E-1,4.780518E-1,1.9549946E-1,-1.9087933E-1,-2.0192264E-1,-5.229099E-1,2.0429404E-2,5.242093E-1,8.025297E-1,2.6528066E-1,-6.3551486E-2,1.098349E0,6.1107075E-1,-2.966584E-1,-1.9624842E-2,1.9375956E-2,-5.9056293E-2,-9.32389E-3,-4.9646575E-2,-8.864919E-3,-3.42069E-2,-1.4083944E-2,3.3979096E-2,-7.4677556E-3,3.7591513E-2,8.193712E-3,5.1145207E-2,-5.504858E-2,-1.0646986E-2,3.2296132E-2,-5.779065E-2,5.1131763E-2,2.8432408E-2,7.8084104E-2,3.3224445E-2,-1.3865264E-2,-3.9684888E-2,2.0615362E-2],"categories":[],"categories_nodes":[],"categories_segments":[],"categories_sizes":[],"default_left":[0,0,0,0,0,0,0,0,0,0,0,0,0,0,0,0,0,0,0,0,0,0,0,0,0,0,0,0,0,0,0,0,0,0,0,0,0,0,0,0,0,0,0,0,0,0,0,0,0,0,0],"id":24,"left_children":[1,3,5,7,9,11,13,-1,-1,15,17,19,21,23,25,27,29,31,33,35,37,39,41,43,45,47,49,-1,-1,-1,-1,-1,-1,-1,-1,-1,-1,-1,-1,-1,-1,-1,-1,-1,-1,-1,-1,-1,-1,-1,-1],"loss_changes":[1.968961E2,1.7997673E1,1.7177414E1,7.269058E-1,3.0139084E0,6.686468E0,1.5084686E1,0E0,0E0,4.4882507E0,6.0882683E0,1.1443294E1,7.191498E0,1.23209E1,2.4429733E1,3.6517138E0,3.866455E0,3.7973146E0,3.016636E0,1.6382036E1,5.19853E0,1.9575632E1,1.1830807E1,1.424569E1,1.853315E1,9.761513E0,1.269882E1,0E0,0E0,0E0,0E0,0E0,0E0,0E0,0E0,0E0,0E0,0E0,0E0,0E0,0E0,0E0,0E0,0E0,0E0,0E0,0E0,0E0,0E0,0E0,0E0],"parents":[2147483647,0,0,1,1,2,2,3,3,4,4,5,5,6,6,9,9,10,10,11,11,12,12,13,13,14,14,15,15,16,16,17,17,18,18,19,19,20,20,21,21,22,22,23,23,24,24,25,25,26,26],"right_children":[2,4,6,8,10,12,14,-1,-1,16,18,20,22,24,26,28,30,32,34,36,38,40,42,44,46,48,50,-1,-1,-1,-1,-1,-1,-1,-1,-1,-1,-1,-1,-1,-1,-1,-1,-1,-1,-1,-1,-1,-1,-1,-1],"split_conditions":[7.5938736E1,2.7686432E1,3.9809344E2,1E0,1.2E1,1.9E1,3E0,-1.9906259E-3,-5.3283602E-2,4.4659242E-2,1E0,8E0,2.1E1,4.4659242E-2,2.2E1,1.1E1,1E0,2.0800196E-2,8E0,2E0,4E0,3.5313208E2,4E0,2E0,1E0,7.806191E-2,4E0,-1.9624842E-2,1.9375956E-2,-5.9056293E-2,-9.32389E-3,-4.9646575E-2,-8.864919E-3,-3.42069E-2,-1.4083944E-2,3.3979096E-2,-7.4677556E-3,3.7591513E-2,8.193712E-3,5.1145207E-2,-5.504858E-2,-1.0646986E-2,3.2296132E-2,-5.779065E-2,5.1131763E-2,2.8432408E-2,7.8084104E-2,3.3224445E-2,-1.3865264E-2,-3.9684888E-2,2.0615362E-2],"split_indices":[13,13,13,3,10,7,10,0,0,12,9,1,7,12,7,3,0,12,7,7,10,13,10,10,0,12,10,0,0,0,0,0,0,0,0,0,0,0,0,0,0,0,0,0,0,0,0,0,0,0,0],"split_type":[0,0,0,0,0,0,0,0,0,0,0,0,0,0,0,0,0,0,0,0,0,0,0,0,0,0,0,0,0,0,0,0,0,0,0,0,0,0,0,0,0,0,0,0,0,0,0,0,0,0,0],"sum_hessian":[1.955E3,1.317E3,6.38E2,2.6E1,1.291E3,3.15E2,3.23E2,1E0,2.5E1,9.98E2,2.93E2,2.09E2,1.06E2,8.9E1,2.34E2,3E1,9.68E2,2.09E2,8.4E1,1.44E2,6.5E1,4.3E1,6.3E1,1E1,7.9E1,2E2,3.4E1,7E0,2.3E1,3E0,9.65E2,5E0,2.04E2,4.9E1,3.5E1,2.9E1,1.15E2,3.9E1,2.6E1,3.9E1,4E0,2.8E1,3.5E1,5E0,5E0,3.8E1,4.1E1,1.89E2,1.1E1,2E1,1.4E1],"tree_param":{"num_deleted":"0","num_feature":"14","num_nodes":"51","size_leaf_vector":"1"}},{"base_weights":[-3.0893102E-4,-1.9663745E-1,4.2617896E-1,-9.650125E-1,-1.8006364E-1,3.53652E-1,1.0469022E0,-6.397796E-2,-6.803318E-1,-2.110802E-1,-1.3288844E-1,6.540959E-2,4.20541E-1,1.2988608E0,5.9789246E-1,-4.5839325E-1,-6.31017E-2,-1.8996917E-1,-3.7228978E-1,-1.5590434E-1,3.3058652E-1,5.9766376E-1,-2.647091E-1,7.315294E-1,3.100434E-1,1.6856583E0,6.070607E-1,-1.9486004E-1,1.1460514E0,-3.8450062E-2,1.1725068E-2,-2.7835343E-2,-8.687972E-3,-3.557636E-2,-1.5739085E-2,2.0290464E-2,-8.59359E-3,7.2084315E-2,8.346966E-3,4.8470724E-2,-4.10359E-2,-2.1960927E-2,5.214433E-2,6.119001E-3,4.3910544E-2,1.8110164E-2,-2.0332454E-2,9.474453E-2,-2.2350417E-2,6.1989963E-2,-5.85688E-4,1.8284494E-2,-6.461224E-2,7.39608E-2,-3.2317277E-2],"categories":[],"categories_nodes":[],"categories_segments":[],"categories_sizes":[],"default_left":[0,0,0,0,0,0,0,0,0,0,0,0,0,0,0,0,0,0,0,0,0,0,0,0,0,0,0,0,0,0,0,0,0,0,0,0,0,0,0,0,0,0,0,0,0,0,0,0,0,0,0,0,0,0,0],"id":25,"left_children":[1,3,5,7,9,11,13,-1,15,17,19,21,23,25,27,29,-1,31,33,35,37,39,41,43,45,47,49,51,53,-1,-1,-1,-1,-1,-1,-1,-1,-1,-1,-1,-1,-1,-1,-1,-1,-1,-1,-1,-1,-1,-1,-1,-1,-1,-1],"loss_changes":[1.6417505E2,1.6814705E1,2.7311577E1,1.4407539E0,1.8631401E0,1.0624428E1,6.2741776E0,0E0,1.4441857E0,2.5650597E0,5.64507E0,1.8816448E1,1.51326065E1,9.450897E0,1.1182299E1,3.2468417E0,0E0,4.003414E0,1.4291925E0,4.5488605E0,4.1441727E0,2.242915E1,1.5458082E1,1.0246521E1,1.2628632E1,1.2147392E1,6.4016914E0,7.3317447E0,9.99682E0,0E0,0E0,0E0,0E0,0E0,0E0,0E0,0E0,0E0,0E0,0E0,0E0,0E0,0E0,0E0,0E0,0E0,0E0,0E0,0E0,0E0,0E0,0E0,0E0,0E0,0E0],"parents":[2147483647,0,0,1,1,2,2,3,3,4,4,5,5,6,6,8,8,9,9,10,10,11,11,12,12,13,13,14,14,15,15,17,17,18,18,19,19,20,20,21,21,22,22,23,23,24,24,25,25,26,26,27,27,28,28],"right_children":[2,4,6,8,10,12,14,-1,16,18,20,22,24,26,28,30,-1,32,34,36,38,40,42,44,46,48,50,52,54,-1,-1,-1,-1,-1,-1,-1,-1,-1,-1,-1,-1,-1,-1,-1,-1,-1,-1,-1,-1,-1,-1,-1,-1,-1,-1],"split_conditions":[8.760343E1,2.7686432E1,1.3681353E3,2.0813832E0,1.2E1,5E0,8E0,-6.397796E-2,1.2E1,8E0,5.0702282E1,2E0,3E0,7.806191E-2,7E0,4E0,-6.31017E-2,2E0,2E0,1.8E1,5.421144E1,1E0,6.4444293E2,1.1E1,1.2411602E3,1E0,3E0,1.1E1,4E0,-3.8450062E-2,1.1725068E-2,-2.7835343E-2,-8.687972E-3,-3.557636E-2,-1.5739085E-2,2.0290464E-2,-8.59359E-3,7.2084315E-2,8.346966E-3,4.8470724E-2,-4.10359E-2,-2.1960927E-2,5.214433E-2,6.119001E-3,4.3910544E-2,1.8110164E-2,-2.0332454E-2,9.474453E-2,-2.2350417E-2,6.1989963E-2,-5.85688E-4,1.8284494E-2,-6.461224E-2,7.39608E-2,-3.2317277E-2],"split_indices":[13,13,13,13,7,7,1,0,10,7,13,7,10,12,7,10,0,1,10,7,13,6,13,3,13,6,10,3,5,0,0,0,0,0,0,0,0,0,0,0,0,0,0,0,0,0,0,0,0,0,0,0,0,0,0],"split_type":[0,0,0,0,0,0,0,0,0,0,0,0,0,0,0,0,0,0,0,0,0,0,0,0,0,0,0,0,0,0,0,0,0,0,0,0,0,0,0,0,0,0,0,0,0,0,0,0,0,0,0,0,0,0,0],"sum_hessian":[1.959E3,1.342E3,6.17E2,2.7E1,1.315E3,5.54E2,6.3E1,1.1E1,1.6E1,7.9E2,5.25E2,1.05E2,4.49E2,3.9E1,2.4E1,1.3E1,3E0,7.01E2,8.9E1,5.01E2,2.4E1,4E1,6.5E1,1.16E2,3.33E2,2.4E1,1.5E1,1E1,1.4E1,9E0,4E0,2.8E1,6.73E2,1.1E1,7.8E1,1.3E1,4.88E2,2E0,2.2E1,3.2E1,8E0,5.8E1,7E0,2.3E1,9.3E1,3.11E2,2.2E1,2.2E1,2E0,7E0,8E0,7E0,3E0,1.2E1,2E0],"tree_param":{"num_deleted":"0","num_feature":"14","num_nodes":"55","size_leaf_vector":"1"}},{"base_weights":[3.0775948E-3,-1.59956E-1,5.089279E-1,-1.0443478E0,-1.4507693E-1,4.0811673E-1,1.063333E0,-4.6893308E-1,-6.239083E-2,-1.8150198E-1,1.2300248E-1,1.7159492E-1,5.188849E-1,4.9837875E-1,1.1663508E0,1.7270772E-2,-6.5054613E-1,-2.3003109E-1,-1.3199152E-1,7.9757684E-1,6.2583454E-2,-3.1228292E-1,5.6711155E-1,1.2422541E0,3.997878E-1,-4.0362793E-1,5.6254324E-2,1.3001734E0,2.5244856E-1,4.77492E-3,-9.796119E-4,6.565533E-3,-4.265898E-2,-7.1827755E-3,-1.42387645E-2,-8.207609E-3,6.808457E-3,8.78803E-2,-6.4822845E-3,-5.1673306E-3,1.8718524E-2,-7.008263E-2,-9.180349E-3,-5.9759524E-2,3.3125214E-2,7.259768E-2,-4.3909006E-2,5.6986727E-2,1.5896268E-2,-5.3045966E-2,2.869849E-2,7.297762E-2,4.220495E-2,6.145845E-2,-9.396215E-3],"categories":[],"categories_nodes":[],"categories_segments":[],"categories_sizes":[],"default_left":[0,0,0,0,0,0,0,0,0,0,0,0,0,0,0,0,0,0,0,0,0,0,0,0,0,0,0,0,0,0,0,0,0,0,0,0,0,0,0,0,0,0,0,0,0,0,0,0,0,0,0,0,0,0,0],"id":26,"left_children":[1,3,5,7,9,11,13,15,-1,17,19,21,23,25,27,29,31,33,35,37,39,41,43,45,47,49,-1,51,53,-1,-1,-1,-1,-1,-1,-1,-1,-1,-1,-1,-1,-1,-1,-1,-1,-1,-1,-1,-1,-1,-1,-1,-1,-1,-1],"loss_changes":[1.6002678E2,1.903368E1,2.5854965E1,2.0530758E0,1.4128555E1,1.0373947E1,3.442665E0,7.809706E-1,0E0,2.9896698E0,6.91505E0,2.5082209E1,2.2858437E1,7.8750906E0,6.854553E0,1.811276E-2,1.1348007E0,2.9425278E0,5.4842834E0,1.285291E1,8.343368E0,7.854486E0,1.2842524E1,1.8229298E1,1.3787312E1,4.51303E0,0E0,2.3174362E0,4.2062054E0,0E0,0E0,0E0,0E0,0E0,0E0,0E0,0E0,0E0,0E0,0E0,0E0,0E0,0E0,0E0,0E0,0E0,0E0,0E0,0E0,0E0,0E0,0E0,0E0,0E0,0E0],"parents":[2147483647,0,0,1,1,2,2,3,3,4,4,5,5,6,6,7,7,9,9,10,10,11,11,12,12,13,13,14,14,15,15,16,16,17,17,18,18,19,19,20,20,21,21,22,22,23,23,24,24,25,25,27,27,28,28],"right_children":[2,4,6,8,10,12,14,16,-1,18,20,22,24,26,28,30,32,34,36,38,40,42,44,46,48,50,-1,52,54,-1,-1,-1,-1,-1,-1,-1,-1,-1,-1,-1,-1,-1,-1,-1,-1,-1,-1,-1,-1,-1,-1,-1,-1,-1,-1],"split_conditions":[1.4010123E2,1.1090042E1,1.3667261E3,4E0,6.8801506E1,1E0,2E0,1.3E1,-6.239083E-2,4.438575E1,1E0,2E1,3E0,6.5704145E-2,7.806191E-2,1E0,1E0,6E0,9E0,4E0,1.9E1,1E0,1E0,6E0,7E0,5E0,5.6254324E-2,2.822071E3,4E0,4.77492E-3,-9.796119E-4,6.565533E-3,-4.265898E-2,-7.1827755E-3,-1.42387645E-2,-8.207609E-3,6.808457E-3,8.78803E-2,-6.4822845E-3,-5.1673306E-3,1.8718524E-2,-7.008263E-2,-9.180349E-3,-5.9759524E-2,3.3125214E-2,7.259768E-2,-4.3909006E-2,5.6986727E-2,1.5896268E-2,-5.3045966E-2,2.869849E-2,7.297762E-2,4.220495E-2,6.145845E-2,-9.396215E-3],"split_indices":[13,13,13,7,13,0,10,3,0,13,7,7,1,12,12,0,8,7,4,8,7,4,3,8,4,8,0,13,7,0,0,0,0,0,0,0,0,0,0,0,0,0,0,0,0,0,0,0,0,0,0,0,0,0,0],"split_type":[0,0,0,0,0,0,0,0,0,0,0,0,0,0,0,0,0,0,0,0,0,0,0,0,0,0,0,0,0,0,0,0,0,0,0,0,0,0,0,0,0,0,0,0,0,0,0,0,0,0,0,0,0,0,0],"sum_hessian":[1.938E3,1.466E3,4.72E2,2.3E1,1.443E3,4.01E2,7.1E1,7E0,1.6E1,1.271E3,1.72E2,1.29E2,2.72E2,1.2E1,5.9E1,2E0,5E0,6.39E2,6.32E2,1.3E1,1.59E2,5.8E1,7.1E1,3.7E1,2.35E2,5E0,7E0,5.1E1,8E0,1E0,1E0,1E0,4E0,2.5E2,3.89E2,5.65E2,6.7E1,6E0,7E0,1.04E2,5.5E1,5E0,5.3E1,3E0,6.8E1,3.4E1,3E0,2.2E1,2.13E2,3E0,2E0,3.6E1,1.5E1,2E0,6E0],"tree_param":{"num_deleted":"0","num_feature":"14","num_nodes":"55","size_leaf_vector":"1"}},{"base_weights":[-6.353837E-3,2.5559455E-1,-1.7366058E-1,-2.6135498E-1,3.047114E-1,-6.585419E-2,-1.7057654E-1,-1.8878195E-1,-1.3321849E0,-3.0465922E-1,3.2409677E-1,-3.772908E-1,-1.5909684E-1,5.6464754E-2,-4.3891817E-1,-9.847293E-2,-2.1497047E-2,-5.544568E-1,6.3554376E-1,8.635043E-1,3.012142E-1,-6.188445E-2,-3.2631603E-1,-1.8976751E-1,-1.1632099E-1,-3.8886994E-2,1.5740877E-2,-6.655057E-2,-8.900581E-3,4.4894878E-2,-3.9918482E-2,5.0882764E-2,-1.9822553E-2,9.0640634E-2,2.5059348E-2,-3.900323E-2,1.6310161E-2,5.854601E-3,-2.394715E-2,-8.747859E-3,-1.8869849E-2,-2.6358312E-3,-1.4501995E-2],"categories":[],"categories_nodes":[],"categories_segments":[],"categories_sizes":[],"default_left":[0,0,0,0,0,0,0,0,0,0,0,0,0,0,0,0,0,0,0,0,0,0,0,0,0,0,0,0,0,0,0,0,0,0,0,0,0,0,0,0,0,0,0],"id":27,"left_children":[1,3,5,7,9,-1,11,13,15,17,19,21,23,25,27,-1,-1,29,31,33,35,-1,37,39,41,-1,-1,-1,-1,-1,-1,-1,-1,-1,-1,-1,-1,-1,-1,-1,-1,-1,-1],"loss_changes":[8.637288E1,1.958421E1,3.8687859E0,4.803208E0,8.393318E0,0E0,2.7363281E0,3.9891138E0,1.2132144E0,5.511202E0,8.029045E0,2.1589556E0,1.4429569E0,7.3106847E0,7.060257E0,0E0,0E0,7.0833635E0,2.4372559E0,8.146713E0,1.7907242E1,0E0,4.152827E0,1.7155571E0,5.2540884E0,0E0,0E0,0E0,0E0,0E0,0E0,0E0,0E0,0E0,0E0,0E0,0E0,0E0,0E0,0E0,0E0,0E0,0E0],"parents":[2147483647,0,0,1,1,2,2,3,3,4,4,6,6,7,7,8,8,9,9,10,10,11,11,12,12,13,13,14,14,17,17,18,18,19,19,20,20,22,22,23,23,24,24],"right_children":[2,4,6,8,10,-1,12,14,16,18,20,22,24,26,28,-1,-1,30,32,34,36,-1,38,40,42,-1,-1,-1,-1,-1,-1,-1,-1,-1,-1,-1,-1,-1,-1,-1,-1,-1,-1],"split_conditions":[5.9904563E-1,2.0800196E-2,1E0,1E1,2E0,-6.585419E-2,1E0,8E0,1.2E1,1E0,1.2724825E-2,9.421265E-3,4E0,2E0,1.1E1,-9.847293E-2,-2.1497047E-2,2E0,8E0,5E0,1E0,-6.188445E-2,3.2179125E-2,2.3E1,1.2E1,-3.8886994E-2,1.5740877E-2,-6.655057E-2,-8.900581E-3,4.4894878E-2,-3.9918482E-2,5.0882764E-2,-1.9822553E-2,9.0640634E-2,2.5059348E-2,-3.900323E-2,1.6310161E-2,5.854601E-3,-2.394715E-2,-8.747859E-3,-1.8869849E-2,-2.6358312E-3,-1.4501995E-2],"split_indices":[12,12,0,4,3,0,7,7,3,6,11,11,8,4,7,0,0,8,4,7,4,0,11,7,10,0,0,0,0,0,0,0,0,0,0,0,0,0,0,0,0,0,0],"split_type":[0,0,0,0,0,0,0,0,0,0,0,0,0,0,0,0,0,0,0,0,0,0,0,0,0,0,0,0,0,0,0,0,0,0,0,0,0,0,0,0,0,0,0],"sum_hessian":[1.969E3,7.67E2,1.202E3,6.6E1,7.01E2,2E0,1.2E3,6.3E1,3E0,2.1E1,6.8E2,6.1E1,1.139E3,3.2E1,3.1E1,1E0,2E0,1.7E1,4E0,2.6E1,6.54E2,2E0,5.9E1,6.6E2,4.79E2,7E0,2.5E1,6E0,2.5E1,2E0,1.5E1,3E0,1E0,6E0,2E1,1.4E1,6.4E2,1.5E1,4.4E1,6.14E2,4.6E1,3.52E2,1.27E2],"tree_param":{"num_deleted":"0","num_feature":"14","num_nodes":"43","size_leaf_vector":"1"}},{"base_weights":[-6.6372603E-3,-1.503554E-1,4.4066244E-1,-7.999169E-1,-1.374073E-1,2.9599723E-1,6.5058976E-1,1.9072771E-1,-9.304234E-1,-1.7461719E-1,5.311452E-2,5.354355E-1,-2.2891765E-2,7.876503E-1,-4.3352615E-2,8.766621E-1,-4.4176884E-2,-9.770268E-1,-1.1482782E-2,-6.1761415E-1,-1.6759714E-1,-4.741985E-2,5.896593E-1,-9.253488E-1,6.0945415E-1,-7.8926474E-1,1.3727547E-1,6.939199E-1,1.3946939E0,1.4128078E0,-5.115899E-1,5.6310833E-2,6.938825E-3,-2.795188E-2,-5.4289278E-2,3.4453135E-2,-4.151326E-2,-1.4928684E-2,-7.4385866E-3,-8.305901E-3,9.193843E-3,2.0313367E-2,9.880379E-2,1.9152138E-2,-5.90634E-2,2.05623E-2,4.4838037E-2,3.1612355E-2,-8.6018406E-2,-3.751434E-2,1.2826398E-2,-4.117934E-2,3.5580453E-2,8.358746E-2,-3.4960117E-2,2.3887401E-2,8.141016E-2,-5.673898E-2,6.1936177E-2],"categories":[],"categories_nodes":[],"categories_segments":[],"categories_sizes":[],"default_left":[0,0,0,0,0,0,0,0,0,0,0,0,0,0,0,0,0,0,0,0,0,0,0,0,0,0,0,0,0,0,0,0,0,0,0,0,0,0,0,0,0,0,0,0,0,0,0,0,0,0,0,0,0,0,0,0,0,0,0],"id":28,"left_children":[1,3,5,7,9,11,13,15,17,19,21,23,25,27,29,31,-1,33,-1,35,37,39,41,43,45,47,49,51,53,55,57,-1,-1,-1,-1,-1,-1,-1,-1,-1,-1,-1,-1,-1,-1,-1,-1,-1,-1,-1,-1,-1,-1,-1,-1,-1,-1,-1,-1],"loss_changes":[1.23207436E2,1.2000103E1,1.3864792E1,3.8714237E0,1.0116583E1,2.128999E1,1.808477E1,3.7213783E0,4.7140694E-1,3.5249252E0,1.2650482E1,1.7724293E1,1.4903287E1,7.813286E0,2.245117E1,2.696364E-1,0E0,2.7410126E-1,0E0,5.5878158E0,2.8080292E0,5.437305E0,8.36648E0,3.2110395E0,8.156277E0,2.8991573E1,1.0727496E1,4.3060913E0,1.2868645E1,6.227951E-1,2.8664713E1,0E0,0E0,0E0,0E0,0E0,0E0,0E0,0E0,0E0,0E0,0E0,0E0,0E0,0E0,0E0,0E0,0E0,0E0,0E0,0E0,0E0,0E0,0E0,0E0,0E0,0E0,0E0,0E0],"parents":[2147483647,0,0,1,1,2,2,3,3,4,4,5,5,6,6,7,7,8,8,9,9,10,10,11,11,12,12,13,13,14,14,15,15,17,17,19,19,20,20,21,21,22,22,23,23,24,24,25,25,26,26,27,27,28,28,29,29,30,30],"right_children":[2,4,6,8,10,12,14,16,18,20,22,24,26,28,30,32,-1,34,-1,36,38,40,42,44,46,48,50,52,54,56,58,-1,-1,-1,-1,-1,-1,-1,-1,-1,-1,-1,-1,-1,-1,-1,-1,-1,-1,-1,-1,-1,-1,-1,-1,-1,-1,-1,-1],"split_conditions":[1.4010123E2,3.0045177E1,6.4444293E2,1E0,5.038256E1,4E0,2.2E1,1E0,1.1090042E1,1E0,9E0,1E0,5E0,1E0,3E0,3E0,-4.4176884E-2,4E0,-1.1482782E-2,1E0,3.4151028E1,1.9E1,1.7E1,8E0,3E0,3.9809344E2,1.6696346E2,8.197724E-3,1E0,2E0,5E0,5.6310833E-2,6.938825E-3,-2.795188E-2,-5.4289278E-2,3.4453135E-2,-4.151326E-2,-1.4928684E-2,-7.4385866E-3,-8.305901E-3,9.193843E-3,2.0313367E-2,9.880379E-2,1.9152138E-2,-5.90634E-2,2.05623E-2,4.4838037E-2,3.1612355E-2,-8.6018406E-2,-3.751434E-2,1.2826398E-2,-4.117934E-2,3.5580453E-2,8.358746E-2,-3.4960117E-2,2.3887401E-2,8.141016E-2,-5.673898E-2,6.1936177E-2],"split_indices":[13,13,13,8,13,8,7,0,13,0,4,4,7,2,8,1,0,7,0,8,13,7,3,3,8,13,13,11,6,4,8,0,0,0,0,0,0,0,0,0,0,0,0,0,0,0,0,0,0,0,0,0,0,0,0,0,0,0,0],"split_type":[0,0,0,0,0,0,0,0,0,0,0,0,0,0,0,0,0,0,0,0,0,0,0,0,0,0,0,0,0,0,0,0,0,0,0,0,0,0,0,0,0,0,0,0,0,0,0,0,0,0,0,0,0,0,0,0,0,0,0],"sum_hessian":[1.915E3,1.45E3,4.65E2,2.7E1,1.423E3,2.77E2,1.88E2,3E0,2.4E1,1.191E3,2.32E2,1.58E2,1.19E2,1.57E2,3.1E1,2E0,1E0,2.2E1,2E0,1.7E1,1.174E3,1.96E2,3.6E1,7E0,1.51E2,2E1,9.9E1,1.38E2,1.9E1,7E0,2.4E1,1E0,1E0,6E0,1.6E1,2E0,1.5E1,1.45E2,1.029E3,1.3E2,6.6E1,3.3E1,3E0,1E0,6E0,9.1E1,6E1,8E0,1.2E1,1.1E1,8.8E1,1E0,1.37E2,1.7E1,2E0,2E0,5E0,1.8E1,6E0],"tree_param":{"num_deleted":"0","num_feature":"14","num_nodes":"59","size_leaf_vector":"1"}},{"base_weights":[2.942117E-3,-1.7203708E-1,3.942672E-1,-7.633393E-1,-1.5929787E-1,3.7345684E-1,9.414277E-2,1.8595952E-1,-8.886935E-1,-1.8604457E-1,-1.1819993E-1,3.381133E-1,6.999841E-1,8.5557884E-1,-4.3072462E-2,-9.6396387E-1,-3.7481937E-1,-1.5786378E-1,-3.9659747E-1,4.4977683E-1,-1.3828926E-1,2.7006632E-1,5.658005E-1,1.2811841E0,3.7303716E-1,5.4903068E-2,6.7653516E-3,-3.0609054E-2,-5.6283124E-2,3.6351387E-3,-3.653675E-2,-1.8271372E-2,-7.013872E-3,-3.3665538E-2,-1.5509616E-2,7.71533E-2,1.4440738E-2,-4.5088675E-2,-6.435418E-3,6.487033E-2,1.2330618E-2,-2.8358037E-2,3.199601E-2,7.091268E-2,-3.0578468E-2,6.2937014E-2,2.5655327E-3],"categories":[],"categories_nodes":[],"categories_segments":[],"categories_sizes":[],"default_left":[0,0,0,0,0,0,0,0,0,0,0,0,0,0,0,0,0,0,0,0,0,0,0,0,0,0,0,0,0,0,0,0,0,0,0,0,0,0,0,0,0,0,0,0,0,0,0],"id":29,"left_children":[1,3,5,7,9,11,-1,13,15,17,19,21,23,25,-1,27,29,31,33,35,37,39,41,43,45,-1,-1,-1,-1,-1,-1,-1,-1,-1,-1,-1,-1,-1,-1,-1,-1,-1,-1,-1,-1,-1,-1],"loss_changes":[1.3361386E2,9.940254E0,1.7750977E1,3.5674953E0,1.3996735E0,6.537735E0,0E0,3.5419116E0,4.7179794E-1,4.610985E0,6.0214443E0,8.130051E0,1.0187878E1,2.5204754E-1,0E0,3.3164406E-1,9.153304E-1,2.4716206E0,1.9163733E0,2.538757E0,3.4968405E0,9.597441E0,1.0699116E1,6.136814E0,1.0632668E1,0E0,0E0,0E0,0E0,0E0,0E0,0E0,0E0,0E0,0E0,0E0,0E0,0E0,0E0,0E0,0E0,0E0,0E0,0E0,0E0,0E0,0E0],"parents":[2147483647,0,0,1,1,2,2,3,3,4,4,5,5,7,7,8,8,9,9,10,10,11,11,12,12,13,13,15,15,16,16,17,17,18,18,19,19,20,20,21,21,22,22,23,23,24,24],"right_children":[2,4,6,8,10,12,-1,14,16,18,20,22,24,26,-1,28,30,32,34,36,38,40,42,44,46,-1,-1,-1,-1,-1,-1,-1,-1,-1,-1,-1,-1,-1,-1,-1,-1,-1,-1,-1,-1,-1,-1],"split_conditions":[8.760343E1,3.0045177E1,5.9399897E3,1E0,1.2E1,1.3681353E3,9.414277E-2,8E0,1.1090042E1,8E0,1.8E1,5E0,3E0,3E0,-4.3072462E-2,3E0,5E0,5.6038175E-2,3.3647377E-2,2E0,1.0277743E-2,8.771301E1,8.771301E1,2.1E1,4E0,5.4903068E-2,6.7653516E-3,-3.0609054E-2,-5.6283124E-2,3.6351387E-3,-3.653675E-2,-1.8271372E-2,-7.013872E-3,-3.3665538E-2,-1.5509616E-2,7.71533E-2,1.4440738E-2,-4.5088675E-2,-6.435418E-3,6.487033E-2,1.2330618E-2,-2.8358037E-2,3.199601E-2,7.091268E-2,-3.0578468E-2,6.2937014E-2,2.5655327E-3],"split_indices":[13,13,13,8,7,13,0,1,13,7,7,8,8,1,0,8,8,12,11,4,12,13,13,3,7,0,0,0,0,0,0,0,0,0,0,0,0,0,0,0,0,0,0,0,0,0,0],"split_type":[0,0,0,0,0,0,0,0,0,0,0,0,0,0,0,0,0,0,0,0,0,0,0,0,0,0,0,0,0,0,0,0,0,0,0,0,0,0,0,0,0,0,0,0,0,0,0],"sum_hessian":[1.949E3,1.347E3,6.02E2,2.7E1,1.32E3,5.95E2,7E0,3E0,2.4E1,7.96E2,5.24E2,5.39E2,5.6E1,2E0,1E0,2E1,4E0,7.04E2,9.2E1,1.7E1,5.07E2,4.17E2,1.22E2,1.9E1,3.7E1,1E0,1E0,8E0,1.2E1,2E0,2E0,5.3E1,6.51E2,2E1,7.2E1,1E0,1.6E1,5E0,5.02E2,8E0,4.09E2,7E0,1.15E2,1.8E1,1E0,9E0,2.8E1],"tree_param":{"num_deleted":"0","num_feature":"14","num_nodes":"47","size_leaf_vector":"1"}},{"base_weights":[-1.3449012E-3,-1.4661981E-1,3.9452118E-1,-7.413001E-1,-1.341786E-1,6.7420286E-1,2.9597583E-1,-5.6091856E-2,-5.0896657E-1,-1.5501484E-1,8.755362E-2,4.9785826E-1,1.3639698E0,1.4561427E-1,5.411937E-1,-5.028947E-3,-6.6994387E-1,-5.143969E-1,-1.5000342E-1,-2.1885203E-1,2.1596117E-1,3.1599257E-2,6.063958E-1,-3.5600122E-2,1.4750458E0,2.067571E-1,-9.4905895E-1,6.9714123E-1,-3.323099E-1,-3.2819252E-2,4.1589443E-2,-2.3923381E-3,-3.771391E-2,-1.2588588E-2,-8.113619E-2,-9.014165E-3,-4.34721E-3,-1.3915586E-2,9.273022E-3,2.1999916E-2,-9.62459E-3,4.402093E-2,-1.6774207E-2,1.0535876E-1,2.7326262E-2,4.189835E-2,8.530413E-2,2.0870373E-2,-1.5026428E-4,-1.1017209E-1,-2.5579277E-2,-2.5901446E-2,4.0361255E-2,-9.120339E-2,8.892442E-3],"categories":[],"categories_nodes":[],"categories_segments":[],"categories_sizes":[],"default_left":[0,0,0,0,0,0,0,0,0,0,0,0,0,0,0,0,0,0,0,0,0,0,0,0,0,0,0,0,0,0,0,0,0,0,0,0,0,0,0,0,0,0,0,0,0,0,0,0,0,0,0,0,0,0,0],"id":30,"left_children":[1,3,5,7,9,11,13,-1,15,17,19,21,23,25,27,29,31,33,35,37,39,41,43,-1,45,47,49,51,53,-1,-1,-1,-1,-1,-1,-1,-1,-1,-1,-1,-1,-1,-1,-1,-1,-1,-1,-1,-1,-1,-1,-1,-1,-1,-1],"loss_changes":[1.12693985E2,1.04225025E1,1.4200699E1,1.829876E0,6.5161343E0,1.5677338E1,1.4269207E1,0E0,1.5515833E0,2.1725063E0,4.8076954E0,5.4837646E0,7.3524857E0,1.6453262E1,2.0428818E1,3.7988317E0,6.706605E-1,4.352261E0,2.3825722E0,9.263519E-1,7.9791903E0,7.204784E0,6.579872E0,0E0,2.1428604E0,1.0293965E1,5.735118E0,1.7302181E1,1.7992796E1,0E0,0E0,0E0,0E0,0E0,0E0,0E0,0E0,0E0,0E0,0E0,0E0,0E0,0E0,0E0,0E0,0E0,0E0,0E0,0E0,0E0,0E0,0E0,0E0,0E0,0E0],"parents":[2147483647,0,0,1,1,2,2,3,3,4,4,5,5,6,6,8,8,9,9,10,10,11,11,12,12,13,13,14,14,15,15,16,16,17,17,18,18,19,19,20,20,21,21,22,22,24,24,25,25,26,26,27,27,28,28],"right_children":[2,4,6,8,10,12,14,-1,16,18,20,22,24,26,28,30,32,34,36,38,40,42,44,-1,46,48,50,52,54,-1,-1,-1,-1,-1,-1,-1,-1,-1,-1,-1,-1,-1,-1,-1,-1,-1,-1,-1,-1,-1,-1,-1,-1,-1,-1],"split_conditions":[1.0061751E2,3.0045177E1,3E0,2.0813832E0,7.793821E1,1.2186891E3,1.1E1,-5.6091856E-2,2.6778333E0,1E0,6E0,4.4659242E-2,1E0,7.806191E-2,1E0,8E0,4E0,1.0277743E-2,1E0,9.173039E1,2E0,1E0,1.201866E2,-3.5600122E-2,7E0,3E0,1.2724825E-2,2.0800196E-2,2E0,-3.2819252E-2,4.1589443E-2,-2.3923381E-3,-3.771391E-2,-1.2588588E-2,-8.113619E-2,-9.014165E-3,-4.34721E-3,-1.3915586E-2,9.273022E-3,2.1999916E-2,-9.62459E-3,4.402093E-2,-1.6774207E-2,1.0535876E-1,2.7326262E-2,4.189835E-2,8.530413E-2,2.0870373E-2,-1.5026428E-4,-1.1017209E-1,-2.5579277E-2,-2.5901446E-2,4.0361255E-2,-9.120339E-2,8.892442E-3],"split_indices":[13,13,10,13,13,13,10,0,13,0,4,12,0,12,6,4,4,12,2,13,5,0,13,0,4,5,11,12,4,0,0,0,0,0,0,0,0,0,0,0,0,0,0,0,0,0,0,0,0,0,0,0,0,0,0],"split_type":[0,0,0,0,0,0,0,0,0,0,0,0,0,0,0,0,0,0,0,0,0,0,0,0,0,0,0,0,0,0,0,0,0,0,0,0,0,0,0,0,0,0,0,0,0,0,0,0,0,0,0,0,0,0,0],"sum_hessian":[1.958E3,1.433E3,5.25E2,2.8E1,1.405E3,1.35E2,3.9E2,9E0,1.9E1,1.285E3,1.2E2,1.09E2,2.6E1,2.43E2,1.47E2,5E0,1.4E1,1.6E1,1.269E3,3.5E1,8.5E1,2.1E1,8.8E1,1E0,2.5E1,2.31E2,1.2E1,1.25E2,2.2E1,3E0,2E0,2E0,1.2E1,1.4E1,2E0,8.55E2,4.14E2,3.1E1,4E0,5.5E1,3E1,6E0,1.5E1,2E0,8.6E1,8E0,1.7E1,1.15E2,1.16E2,2E0,1E1,1E1,1.15E2,5E0,1.7E1],"tree_param":{"num_deleted":"0","num_feature":"14","num_nodes":"55","size_leaf_vector":"1"}},{"base_weights":[1.1815412E-3,-1.3259338E-1,4.4194758E-1,-7.604212E-1,-1.21406816E-1,3.789576E-1,9.5666105E-1,8.33731E-1,-9.321727E-1,-1.500969E-1,5.82924E-2,-4.5765868E-1,4.034813E-1,1.1769799E0,2.4831788E-1,5.249076E-2,7.5390674E-3,-3.6116517E-1,-1.0233159E0,-2.3524152E-1,-1.24963544E-1,8.7901366E-1,-1.5699908E-2,3.3722243E-1,-1.3254101E0,4.6902582E-1,6.51509E-2,1.9489682E-1,1.2870841E0,-8.0990416E-1,8.172805E-2,-0E0,-2.2427088E-2,-3.26642E-2,-5.8230955E-2,-1.6217897E-2,-2.5829996E-3,-8.841029E-3,-2.4276662E-3,8.873388E-2,1.7479863E-2,2.1002106E-3,-2.4067359E-2,-1.5304598E-2,6.651695E-2,-2.6593992E-2,-7.821027E-2,3.0536888E-2,1.1970683E-2,2.9702598E-2,-1.3469989E-2,7.1108475E-2,-5.3200405E-2,6.848898E-2,-0E0,1.7072605E-2,-1.0358118E-1],